svm_type one_class
kernel_type rbf
gamma 0.0001
nr_class 2
total_sv 5151
rho 11.867365847042453
probA -785.94024221789391
probB -0.12807209153451371
prob_scales_uniform -10.679649487672076 -8.5437195901376608 -6.407789692603246 -4.2718597950688313 -2.1359298975344156 0 0.34567101913947162 0.69134203827894325 1.0370130574184149 1.3826840765578865 1.7283550956973581
prob_scales_density -10.679649487672076 -0.50865417625235132 -0.20247688591483382 -0.046057504514438463 -0.0035755704431377211 0 0.016623042300865976 0.065495958762751272 0.16701291761719617 0.29851800144300533 1.7283550956973581
SV
1 0:1 1:0 2:32 3:0 4:0 5:0 6:0 7:0 8:0 9:0 10:0 11:0 12:0 13:0 14:0 15:0 16:0 17:32 18:0 19:0 20:0 21:0 22:0 23:0 24:0 25:0 26:0 27:0 28:0 29:0 30:0 31:0 32:0 33:0 34:0 35:0 36:0 37:0 38:0 39:32 40:32 41:24 42:0 43:0 44:0 45:14 46:10 47:0 48:16 49:0 50:0 51:0 52:0 53:0 54:0 55:31 56:0 57:0 58:0 59:32 60:0 61:0 62:0 63:0 64:0 65:0 66:0 67:0 68:0 69:0 70:0 71:0 72:0 73:32 
1 0:3 1:0 2:34 3:0 4:0 5:0 6:0 7:0 8:0 9:0 10:0 11:0 12:0 13:0 14:0 15:0 16:0 17:34 18:0 19:0 20:0 21:0 22:0 23:0 24:0 25:0 26:0 27:0 28:0 29:0 30:0 31:0 32:0 33:0 34:0 35:0 36:0 37:0 38:0 39:34 40:34 41:26 42:0 43:0 44:0 45:16 46:10 47:0 48:19 49:0 50:0 51:0 52:0 53:0 54:0 55:33 56:0 57:0 58:0 59:34 60:0 61:0 62:0 63:0 64:0 65:0 66:0 67:0 68:0 69:0 70:0 71:0 72:0 73:34 
1 0:8 1:0 2:33 3:0 4:0 5:0 6:0 7:0 8:0 9:0 10:0 11:0 12:0 13:0 14:0 15:0 16:0 17:33 18:0 19:0 20:0 21:0 22:0 23:0 24:0 25:0 26:0 27:0 28:0 29:0 30:0 31:0 32:0 33:0 34:0 35:0 36:0 37:0 38:0 39:33 40:33 41:28 42:0 43:0 44:0 45:16 46:10 47:0 48:20 49:0 50:0 51:0 52:0 53:0 54:0 55:33 56:0 57:0 58:0 59:33 60:0 61:0 62:0 63:0 64:0 65:0 66:0 67:0 68:0 69:0 70:0 71:0 72:0 73:33 
1 0:12 1:0 2:33 3:0 4:0 5:0 6:0 7:0 8:0 9:0 10:0 11:0 12:0 13:0 14:0 15:0 16:0 17:33 18:0 19:0 20:0 21:0 22:0 23:0 24:0 25:0 26:0 27:0 28:0 29:0 30:0 31:0 32:0 33:0 34:0 35:0 36:0 37:0 38:0 39:33 40:33 41:30 42:0 43:0 44:0 45:17 46:10 47:0 48:19 49:0 50:0 51:0 52:0 53:0 54:0 55:33 56:0 57:0 58:0 59:33 60:0 61:0 62:0 63:0 64:0 65:0 66:0 67:0 68:0 69:0 70:0 71:0 72:0 73:33 
1 0:13 1:0 2:33 3:0 4:0 5:0 6:0 7:0 8:0 9:0 10:0 11:0 12:0 13:0 14:0 15:0 16:0 17:33 18:0 19:0 20:0 21:0 22:0 23:0 24:0 25:0 26:0 27:0 28:0 29:0 30:0 31:0 32:0 33:0 34:0 35:0 36:0 37:0 38:0 39:33 40:33 41:30 42:0 43:0 44:0 45:16 46:10 47:0 48:19 49:0 50:0 51:0 52:0 53:0 54:0 55:33 56:0 57:0 58:0 59:33 60:0 61:0 62:0 63:0 64:0 65:0 66:0 67:0 68:0 69:0 70:0 71:0 72:0 73:33 
1 0:18 1:0 2:35 3:0 4:0 5:0 6:0 7:0 8:0 9:0 10:0 11:0 12:0 13:0 14:0 15:0 16:0 17:35 18:0 19:0 20:0 21:0 22:0 23:0 24:0 25:0 26:0 27:0 28:0 29:0 30:0 31:0 32:0 33:0 34:0 35:0 36:0 37:0 38:0 39:35 40:35 41:33 42:0 43:0 44:0 45:17 46:10 47:0 48:19 49:0 50:0 51:0 52:0 53:0 54:0 55:35 56:0 57:0 58:0 59:35 60:0 61:0 62:0 63:0 64:0 65:0 66:0 67:0 68:0 69:0 70:0 71:0 72:0 73:35 
1 0:19 1:0 2:34 3:0 4:0 5:0 6:0 7:0 8:0 9:0 10:0 11:0 12:0 13:0 14:0 15:0 16:0 17:34 18:0 19:0 20:0 21:0 22:0 23:0 24:0 25:0 26:0 27:0 28:0 29:0 30:0 31:0 32:0 33:0 34:0 35:0 36:0 37:0 38:0 39:34 40:34 41:32 42:0 43:0 44:0 45:17 46:10 47:0 48:18 49:0 50:0 51:0 52:0 53:0 54:0 55:34 56:0 57:0 58:0 59:34 60:0 61:0 62:0 63:0 64:0 65:0 66:0 67:0 68:0 69:0 70:0 71:0 72:0 73:34 
1 0:27 1:0 2:33 3:0 4:0 5:0 6:0 7:0 8:0 9:0 10:0 11:0 12:0 13:0 14:0 15:0 16:0 17:33 18:0 19:0 20:0 21:0 22:0 23:0 24:0 25:0 26:0 27:0 28:0 29:0 30:0 31:0 32:0 33:0 34:0 35:0 36:0 37:0 38:0 39:33 40:33 41:31 42:0 43:0 44:0 45:18 46:10 47:0 48:15 49:0 50:0 51:0 52:0 53:0 54:0 55:33 56:0 57:0 58:0 59:33 60:0 61:0 62:0 63:0 64:0 65:0 66:0 67:0 68:0 69:0 70:0 71:0 72:0 73:33 
1 0:29 1:0 2:35 3:0 4:0 5:0 6:0 7:0 8:0 9:0 10:0 11:0 12:0 13:0 14:0 15:0 16:0 17:35 18:0 19:0 20:0 21:0 22:0 23:0 24:0 25:0 26:0 27:0 28:0 29:0 30:0 31:0 32:0 33:0 34:0 35:0 36:0 37:0 38:0 39:35 40:35 41:33 42:0 43:0 44:0 45:19 46:10 47:0 48:16 49:0 50:0 51:0 52:0 53:0 54:0 55:35 56:0 57:0 58:0 59:35 60:0 61:0 62:0 63:0 64:0 65:0 66:0 67:0 68:0 69:0 70:0 71:0 72:0 73:35 
0.83228304347946125 0:31 1:0 2:33 3:0 4:0 5:0 6:0 7:0 8:0 9:0 10:0 11:0 12:0 13:0 14:0 15:0 16:0 17:33 18:0 19:0 20:0 21:0 22:0 23:0 24:0 25:0 26:0 27:0 28:0 29:0 30:0 31:0 32:0 33:0 34:0 35:0 36:0 37:0 38:0 39:33 40:33 41:31 42:0 43:0 44:0 45:19 46:9 47:0 48:15 49:0 50:0 51:0 52:0 53:0 54:0 55:33 56:0 57:0 58:0 59:33 60:0 61:0 62:0 63:0 64:0 65:0 66:0 67:0 68:0 69:0 70:0 71:0 72:0 73:33 
1 0:116 1:0 2:34 3:0 4:0 5:0 6:0 7:0 8:0 9:0 10:0 11:0 12:0 13:0 14:0 15:0 16:0 17:34 18:0 19:0 20:0 21:0 22:0 23:0 24:0 25:0 26:0 27:0 28:0 29:0 30:0 31:0 32:0 33:0 34:0 35:0 36:0 37:0 38:0 39:34 40:34 41:32 42:0 43:0 44:0 45:13 46:9 47:0 48:17 49:0 50:0 51:0 52:0 53:0 54:0 55:34 56:0 57:0 58:0 59:33 60:0 61:0 62:0 63:0 64:0 65:0 66:0 67:0 68:0 69:0 70:0 71:0 72:0 73:34 
1 0:120 1:0 2:34 3:0 4:0 5:0 6:0 7:0 8:0 9:0 10:0 11:0 12:0 13:0 14:0 15:0 16:0 17:34 18:0 19:0 20:0 21:0 22:0 23:0 24:0 25:0 26:0 27:0 28:0 29:0 30:0 31:0 32:0 33:0 34:0 35:0 36:0 37:0 38:0 39:34 40:34 41:32 42:0 43:0 44:0 45:12 46:9 47:0 48:17 49:0 50:0 51:0 52:0 53:0 54:0 55:34 56:0 57:0 58:0 59:33 60:0 61:0 62:0 63:0 64:0 65:0 66:0 67:0 68:0 69:0 70:0 71:0 72:0 73:34 
0.96848132438280932 0:124 1:0 2:33 3:0 4:0 5:0 6:0 7:0 8:0 9:0 10:0 11:0 12:0 13:0 14:0 15:0 16:0 17:33 18:0 19:0 20:0 21:0 22:0 23:0 24:0 25:0 26:0 27:0 28:0 29:0 30:0 31:0 32:0 33:0 34:0 35:0 36:0 37:0 38:0 39:33 40:33 41:31 42:0 43:0 44:0 45:12 46:9 47:0 48:17 49:0 50:0 51:0 52:0 53:0 54:0 55:33 56:0 57:0 58:0 59:32 60:0 61:0 62:0 63:0 64:0 65:0 66:0 67:0 68:0 69:0 70:0 71:0 72:0 73:33 
1 0:137 1:0 2:32 3:0 4:0 5:0 6:0 7:0 8:0 9:0 10:0 11:0 12:0 13:0 14:0 15:0 16:0 17:32 18:0 19:0 20:0 21:0 22:0 23:0 24:0 25:0 26:0 27:0 28:0 29:0 30:0 31:0 32:0 33:0 34:0 35:0 36:0 37:0 38:0 39:32 40:32 41:31 42:0 43:0 44:0 45:15 46:9 47:0 48:20 49:0 50:0 51:0 52:0 53:0 54:0 55:32 56:0 57:0 58:0 59:31 60:0 61:0 62:0 63:0 64:0 65:0 66:0 67:0 68:0 69:0 70:0 71:0 72:0 73:31 
0.062582571464747369 0:171 1:0 2:13 3:0 4:0 5:0 6:0 7:0 8:0 9:0 10:0 11:0 12:0 13:0 14:0 15:0 16:0 17:13 18:0 19:0 20:0 21:0 22:0 23:0 24:0 25:0 26:0 27:0 28:0 29:0 30:0 31:0 32:0 33:0 34:0 35:0 36:0 37:0 38:0 39:12 40:13 41:12 42:0 43:0 44:0 45:7 46:3 47:0 48:7 49:0 50:0 51:0 52:0 53:0 54:0 55:13 56:0 57:0 58:0 59:12 60:0 61:0 62:0 63:0 64:0 65:0 66:0 67:0 68:0 69:0 70:0 71:0 72:0 73:12 
1 0:172 1:0 2:12 3:0 4:0 5:0 6:0 7:0 8:0 9:0 10:0 11:0 12:0 13:0 14:0 15:0 16:0 17:12 18:0 19:0 20:0 21:0 22:0 23:0 24:0 25:0 26:0 27:0 28:0 29:0 30:0 31:0 32:0 33:0 34:0 35:0 36:0 37:0 38:0 39:11 40:12 41:11 42:0 43:0 44:0 45:6 46:2 47:0 48:6 49:0 50:0 51:0 52:0 53:0 54:0 55:12 56:0 57:0 58:0 59:11 60:0 61:0 62:0 63:0 64:0 65:0 66:0 67:0 68:0 69:0 70:0 71:0 72:0 73:11 
1 0:173 1:0 2:11 3:0 4:0 5:0 6:0 7:0 8:0 9:0 10:0 11:0 12:0 13:0 14:0 15:0 16:0 17:11 18:0 19:0 20:0 21:0 22:0 23:0 24:0 25:0 26:0 27:0 28:0 29:0 30:0 31:0 32:0 33:0 34:0 35:0 36:0 37:0 38:0 39:10 40:11 41:10 42:0 43:0 44:0 45:5 46:2 47:0 48:5 49:0 50:0 51:0 52:0 53:0 54:0 55:11 56:0 57:0 58:0 59:10 60:0 61:0 62:0 63:0 64:0 65:0 66:0 67:0 68:0 69:0 70:0 71:0 72:0 73:10 
1 0:174 1:0 2:10 3:0 4:0 5:0 6:0 7:0 8:0 9:0 10:0 11:0 12:0 13:0 14:0 15:0 16:0 17:10 18:0 19:0 20:0 21:0 22:0 23:0 24:0 25:0 26:0 27:0 28:0 29:0 30:0 31:0 32:0 33:0 34:0 35:0 36:0 37:0 38:0 39:9 40:10 41:9 42:0 43:0 44:0 45:5 46:2 47:0 48:4 49:0 50:0 51:0 52:0 53:0 54:0 55:10 56:0 57:0 58:0 59:9 60:0 61:0 62:0 63:0 64:0 65:0 66:0 67:0 68:0 69:0 70:0 71:0 72:0 73:9 
1 0:175 1:0 2:10 3:0 4:0 5:0 6:0 7:0 8:0 9:0 10:0 11:0 12:0 13:0 14:0 15:0 16:0 17:10 18:0 19:0 20:0 21:0 22:0 23:0 24:0 25:0 26:0 27:0 28:0 29:0 30:0 31:0 32:0 33:0 34:0 35:0 36:0 37:0 38:0 39:9 40:10 41:9 42:0 43:0 44:0 45:4 46:2 47:0 48:5 49:0 50:0 51:0 52:0 53:0 54:0 55:10 56:0 57:0 58:0 59:9 60:0 61:0 62:0 63:0 64:0 65:0 66:0 67:0 68:0 69:0 70:0 71:0 72:0 73:9 
1 0:177 1:0 2:11 3:0 4:0 5:0 6:0 7:0 8:0 9:0 10:0 11:0 12:0 13:0 14:0 15:0 16:0 17:11 18:0 19:0 20:0 21:0 22:0 23:0 24:0 25:0 26:0 27:0 28:0 29:0 30:0 31:0 32:0 33:0 34:0 35:0 36:0 37:0 38:0 39:10 40:11 41:10 42:0 43:0 44:0 45:5 46:2 47:0 48:3 49:0 50:0 51:0 52:0 53:0 54:0 55:11 56:0 57:0 58:0 59:11 60:0 61:0 62:0 63:0 64:0 65:0 66:0 67:0 68:0 69:0 70:0 71:0 72:0 73:11 
1 0:179 1:0 2:10 3:0 4:0 5:0 6:0 7:0 8:0 9:0 10:0 11:0 12:0 13:0 14:0 15:0 16:0 17:10 18:0 19:0 20:0 21:0 22:0 23:0 24:0 25:0 26:0 27:0 28:0 29:0 30:0 31:0 32:0 33:0 34:0 35:0 36:0 37:0 38:0 39:9 40:10 41:9 42:0 43:0 44:0 45:5 46:2 47:0 48:2 49:0 50:0 51:0 52:0 53:0 54:0 55:10 56:0 57:0 58:0 59:10 60:0 61:0 62:0 63:0 64:0 65:0 66:0 67:0 68:0 69:0 70:0 71:0 72:0 73:10 
1 0:181 1:0 2:24 3:0 4:0 5:0 6:0 7:0 8:0 9:0 10:0 11:0 12:0 13:0 14:0 15:0 16:0 17:24 18:0 19:0 20:0 21:0 22:0 23:0 24:0 25:0 26:0 27:0 28:0 29:0 30:0 31:0 32:0 33:0 34:0 35:0 36:0 37:0 38:0 39:23 40:24 41:22 42:0 43:0 44:0 45:13 46:6 47:0 48:9 49:0 50:0 51:0 52:0 53:0 54:0 55:24 56:0 57:0 58:0 59:24 60:0 61:0 62:0 63:0 64:0 65:0 66:0 67:0 68:0 69:0 70:0 71:0 72:0 73:24 
0.21770411239928908 0:182 1:0 2:23 3:0 4:0 5:0 6:0 7:0 8:0 9:0 10:0 11:0 12:0 13:0 14:0 15:0 16:0 17:23 18:0 19:0 20:0 21:0 22:0 23:0 24:0 25:0 26:0 27:0 28:0 29:0 30:0 31:0 32:0 33:0 34:0 35:0 36:0 37:0 38:0 39:22 40:23 41:21 42:0 43:0 44:0 45:13 46:6 47:0 48:9 49:0 50:0 51:0 52:0 53:0 54:0 55:23 56:0 57:0 58:0 59:23 60:0 61:0 62:0 63:0 64:0 65:0 66:0 67:0 68:0 69:0 70:0 71:0 72:0 73:23 
1 0:186 1:39 2:0 3:0 4:0 5:0 6:0 7:0 8:39 9:0 10:0 11:0 12:0 13:0 14:0 15:0 16:0 17:0 18:0 19:0 20:39 21:0 22:0 23:0 24:0 25:0 26:0 27:0 28:0 29:0 30:0 31:0 32:0 33:0 34:0 35:0 36:0 37:0 38:0 39:0 40:39 41:39 42:0 43:0 44:39 45:39 46:0 47:39 48:0 49:0 50:0 51:0 52:39 53:0 54:0 55:39 56:0 57:0 58:0 59:0 60:0 61:0 62:0 63:0 64:0 65:0 66:0 67:0 68:0 69:0 70:0 71:0 72:0 73:39 
1 0:187 1:39 2:0 3:0 4:0 5:0 6:0 7:0 8:39 9:0 10:0 11:0 12:0 13:0 14:0 15:0 16:0 17:0 18:0 19:0 20:39 21:0 22:0 23:0 24:0 25:0 26:0 27:0 28:0 29:0 30:0 31:0 32:0 33:0 34:0 35:0 36:0 37:0 38:0 39:0 40:39 41:39 42:0 43:0 44:39 45:39 46:0 47:39 48:0 49:0 50:0 51:0 52:39 53:0 54:0 55:39 56:0 57:0 58:0 59:0 60:0 61:0 62:0 63:0 64:0 65:0 66:0 67:0 68:0 69:0 70:0 71:0 72:0 73:39 
1 0:192 1:39 2:0 3:0 4:0 5:0 6:0 7:0 8:39 9:0 10:0 11:0 12:0 13:0 14:0 15:0 16:0 17:0 18:0 19:0 20:39 21:0 22:0 23:0 24:0 25:0 26:0 27:0 28:0 29:0 30:0 31:0 32:0 33:0 34:0 35:0 36:0 37:0 38:0 39:0 40:39 41:39 42:0 43:0 44:39 45:39 46:0 47:39 48:0 49:0 50:0 51:0 52:39 53:0 54:0 55:39 56:0 57:0 58:0 59:0 60:0 61:0 62:0 63:0 64:0 65:0 66:0 67:0 68:0 69:0 70:0 71:0 72:0 73:39 
1 0:194 1:40 2:0 3:0 4:0 5:0 6:0 7:0 8:40 9:0 10:0 11:0 12:0 13:0 14:0 15:0 16:0 17:0 18:0 19:0 20:40 21:0 22:0 23:0 24:0 25:0 26:0 27:0 28:0 29:0 30:0 31:0 32:0 33:0 34:0 35:0 36:0 37:0 38:0 39:0 40:40 41:40 42:0 43:0 44:40 45:40 46:0 47:40 48:0 49:0 50:0 51:0 52:40 53:0 54:0 55:40 56:0 57:0 58:0 59:0 60:0 61:0 62:0 63:0 64:0 65:0 66:0 67:0 68:0 69:0 70:0 71:0 72:0 73:40 
1 0:196 1:40 2:0 3:0 4:0 5:0 6:0 7:0 8:40 9:0 10:0 11:0 12:0 13:0 14:0 15:0 16:0 17:0 18:0 19:0 20:40 21:0 22:0 23:0 24:0 25:0 26:0 27:0 28:0 29:0 30:0 31:0 32:0 33:0 34:0 35:0 36:0 37:0 38:0 39:0 40:40 41:40 42:0 43:0 44:40 45:40 46:0 47:40 48:0 49:0 50:0 51:0 52:40 53:0 54:0 55:40 56:0 57:0 58:0 59:0 60:0 61:0 62:0 63:0 64:0 65:0 66:0 67:0 68:0 69:0 70:0 71:0 72:0 73:40 
0.53833504889063322 0:198 1:40 2:0 3:0 4:0 5:0 6:0 7:0 8:40 9:0 10:0 11:0 12:0 13:0 14:0 15:0 16:0 17:0 18:0 19:0 20:40 21:0 22:0 23:0 24:0 25:0 26:0 27:0 28:0 29:0 30:0 31:0 32:0 33:0 34:0 35:0 36:0 37:0 38:0 39:0 40:40 41:40 42:0 43:0 44:40 45:40 46:0 47:40 48:0 49:0 50:0 51:0 52:40 53:0 54:0 55:40 56:0 57:0 58:0 59:0 60:0 61:0 62:0 63:0 64:0 65:0 66:0 67:0 68:0 69:0 70:0 71:0 72:0 73:40 
0.57569190080091115 0:220 1:43 2:0 3:0 4:0 5:0 6:0 7:0 8:43 9:0 10:0 11:0 12:0 13:0 14:0 15:0 16:0 17:0 18:0 19:0 20:43 21:0 22:0 23:0 24:0 25:0 26:0 27:0 28:0 29:0 30:0 31:0 32:0 33:0 34:0 35:0 36:0 37:0 38:0 39:0 40:43 41:43 42:0 43:0 44:43 45:43 46:0 47:43 48:0 49:0 50:0 51:0 52:43 53:0 54:0 55:43 56:0 57:0 58:0 59:0 60:0 61:0 62:0 63:0 64:0 65:0 66:0 67:0 68:0 69:0 70:0 71:0 72:0 73:43 
1 0:229 1:44 2:0 3:0 4:0 5:0 6:0 7:0 8:44 9:0 10:0 11:0 12:0 13:0 14:0 15:0 16:0 17:0 18:0 19:0 20:44 21:0 22:0 23:0 24:0 25:0 26:0 27:0 28:0 29:0 30:0 31:0 32:0 33:0 34:0 35:0 36:0 37:0 38:0 39:0 40:44 41:44 42:0 43:0 44:44 45:44 46:0 47:44 48:0 49:0 50:0 51:0 52:44 53:0 54:0 55:44 56:0 57:0 58:0 59:0 60:0 61:0 62:0 63:0 64:0 65:0 66:0 67:0 68:0 69:0 70:0 71:0 72:0 73:44 
1 0:238 1:45 2:0 3:0 4:0 5:0 6:0 7:0 8:45 9:0 10:0 11:0 12:0 13:0 14:0 15:0 16:0 17:0 18:0 19:0 20:45 21:0 22:0 23:0 24:0 25:0 26:0 27:0 28:0 29:0 30:0 31:0 32:0 33:0 34:0 35:0 36:0 37:0 38:0 39:0 40:45 41:45 42:0 43:0 44:45 45:45 46:0 47:45 48:0 49:0 50:0 51:0 52:45 53:0 54:0 55:45 56:0 57:0 58:0 59:0 60:0 61:0 62:0 63:0 64:0 65:0 66:0 67:0 68:0 69:0 70:0 71:0 72:0 73:45 
1 0:284 1:41 2:0 3:0 4:0 5:0 6:0 7:0 8:41 9:0 10:0 11:0 12:0 13:0 14:0 15:0 16:0 17:0 18:0 19:0 20:41 21:0 22:0 23:0 24:0 25:0 26:0 27:0 28:0 29:0 30:0 31:0 32:0 33:0 34:0 35:0 36:0 37:0 38:0 39:0 40:41 41:41 42:0 43:0 44:41 45:41 46:0 47:41 48:0 49:0 50:0 51:0 52:41 53:0 54:0 55:41 56:0 57:0 58:0 59:0 60:0 61:0 62:0 63:0 64:0 65:0 66:0 67:0 68:0 69:0 70:0 71:0 72:0 73:41 
1 0:285 1:41 2:0 3:0 4:0 5:0 6:0 7:0 8:41 9:0 10:0 11:0 12:0 13:0 14:0 15:0 16:0 17:0 18:0 19:0 20:41 21:0 22:0 23:0 24:0 25:0 26:0 27:0 28:0 29:0 30:0 31:0 32:0 33:0 34:0 35:0 36:0 37:0 38:0 39:0 40:41 41:41 42:0 43:0 44:41 45:41 46:0 47:41 48:0 49:0 50:0 51:0 52:41 53:0 54:0 55:41 56:0 57:0 58:0 59:0 60:0 61:0 62:0 63:0 64:0 65:0 66:0 67:0 68:0 69:0 70:0 71:0 72:0 73:41 
0.63323420270849651 0:301 1:40 2:0 3:0 4:0 5:0 6:0 7:0 8:40 9:0 10:0 11:0 12:0 13:0 14:0 15:0 16:0 17:0 18:0 19:0 20:40 21:0 22:0 23:0 24:0 25:0 26:0 27:0 28:0 29:0 30:0 31:0 32:0 33:0 34:0 35:0 36:0 37:0 38:0 39:0 40:40 41:40 42:0 43:0 44:40 45:40 46:0 47:40 48:0 49:0 50:0 51:0 52:40 53:0 54:0 55:40 56:0 57:0 58:0 59:0 60:0 61:0 62:0 63:0 64:0 65:0 66:0 67:0 68:0 69:0 70:0 71:0 72:0 73:40 
1 0:311 1:33 2:0 3:0 4:0 5:0 6:0 7:0 8:33 9:0 10:0 11:0 12:0 13:0 14:0 15:0 16:0 17:0 18:0 19:0 20:33 21:0 22:0 23:0 24:0 25:0 26:0 27:0 28:0 29:0 30:0 31:0 32:0 33:0 34:0 35:0 36:0 37:0 38:0 39:0 40:33 41:33 42:0 43:0 44:33 45:33 46:0 47:33 48:0 49:0 50:0 51:0 52:33 53:0 54:0 55:33 56:0 57:0 58:0 59:0 60:0 61:0 62:0 63:0 64:0 65:0 66:0 67:0 68:0 69:0 70:0 71:0 72:0 73:33 
1 0:315 1:33 2:0 3:0 4:0 5:0 6:0 7:0 8:33 9:0 10:0 11:0 12:0 13:0 14:0 15:0 16:0 17:0 18:0 19:0 20:33 21:0 22:0 23:0 24:0 25:0 26:0 27:0 28:0 29:0 30:0 31:0 32:0 33:0 34:0 35:0 36:0 37:0 38:0 39:0 40:33 41:33 42:0 43:0 44:33 45:33 46:0 47:33 48:0 49:0 50:0 51:0 52:33 53:0 54:0 55:33 56:0 57:0 58:0 59:0 60:0 61:0 62:0 63:0 64:0 65:0 66:0 67:0 68:0 69:0 70:0 71:0 72:0 73:33 
0.1430193867754283 0:316 1:33 2:0 3:0 4:0 5:0 6:0 7:0 8:33 9:0 10:0 11:0 12:0 13:0 14:0 15:0 16:0 17:0 18:0 19:0 20:33 21:0 22:0 23:0 24:0 25:0 26:0 27:0 28:0 29:0 30:0 31:0 32:0 33:0 34:0 35:0 36:0 37:0 38:0 39:0 40:33 41:33 42:0 43:0 44:33 45:33 46:0 47:33 48:0 49:0 50:0 51:0 52:33 53:0 54:0 55:33 56:0 57:0 58:0 59:0 60:0 61:0 62:0 63:0 64:0 65:0 66:0 67:0 68:0 69:0 70:0 71:0 72:0 73:33 
1 0:369 1:45 2:0 3:0 4:0 5:0 6:0 7:0 8:45 9:0 10:0 11:0 12:0 13:0 14:0 15:0 16:0 17:0 18:0 19:0 20:45 21:0 22:0 23:0 24:0 25:0 26:0 27:0 28:0 29:0 30:0 31:0 32:0 33:0 34:0 35:0 36:0 37:0 38:0 39:0 40:45 41:45 42:0 43:0 44:45 45:45 46:0 47:45 48:0 49:0 50:0 51:0 52:45 53:0 54:0 55:45 56:0 57:0 58:0 59:0 60:0 61:0 62:0 63:0 64:0 65:0 66:0 67:0 68:0 69:0 70:0 71:0 72:0 73:45 
1 0:374 1:45 2:0 3:0 4:0 5:0 6:0 7:0 8:45 9:0 10:0 11:0 12:0 13:0 14:0 15:0 16:0 17:0 18:0 19:0 20:45 21:0 22:0 23:0 24:0 25:0 26:0 27:0 28:0 29:0 30:0 31:0 32:0 33:0 34:0 35:0 36:0 37:0 38:0 39:0 40:45 41:45 42:0 43:0 44:45 45:45 46:0 47:45 48:0 49:0 50:0 51:0 52:45 53:0 54:0 55:45 56:0 57:0 58:0 59:0 60:0 61:0 62:0 63:0 64:0 65:0 66:0 67:0 68:0 69:0 70:0 71:0 72:0 73:45 
1 0:375 1:44 2:0 3:0 4:0 5:0 6:0 7:0 8:44 9:0 10:0 11:0 12:0 13:0 14:0 15:0 16:0 17:0 18:0 19:0 20:44 21:0 22:0 23:0 24:0 25:0 26:0 27:0 28:0 29:0 30:0 31:0 32:0 33:0 34:0 35:0 36:0 37:0 38:0 39:0 40:44 41:44 42:0 43:0 44:44 45:44 46:0 47:44 48:0 49:0 50:0 51:0 52:44 53:0 54:0 55:44 56:0 57:0 58:0 59:0 60:0 61:0 62:0 63:0 64:0 65:0 66:0 67:0 68:0 69:0 70:0 71:0 72:0 73:44 
0.74979574920323899 0:378 1:43 2:0 3:0 4:0 5:0 6:0 7:0 8:43 9:0 10:0 11:0 12:0 13:0 14:0 15:0 16:0 17:0 18:0 19:0 20:43 21:0 22:0 23:0 24:0 25:0 26:0 27:0 28:0 29:0 30:0 31:0 32:0 33:0 34:0 35:0 36:0 37:0 38:0 39:0 40:43 41:43 42:0 43:0 44:43 45:43 46:0 47:43 48:0 49:0 50:0 51:0 52:43 53:0 54:0 55:43 56:0 57:0 58:0 59:0 60:0 61:0 62:0 63:0 64:0 65:0 66:0 67:0 68:0 69:0 70:0 71:0 72:0 73:43 
1 0:416 1:24 2:0 3:0 4:0 5:0 6:0 7:0 8:24 9:0 10:0 11:0 12:0 13:0 14:0 15:0 16:0 17:0 18:0 19:0 20:24 21:0 22:0 23:0 24:0 25:0 26:0 27:0 28:0 29:0 30:0 31:0 32:0 33:0 34:0 35:0 36:0 37:0 38:0 39:0 40:24 41:24 42:0 43:0 44:24 45:24 46:0 47:24 48:0 49:0 50:0 51:0 52:24 53:0 54:0 55:24 56:0 57:0 58:0 59:0 60:0 61:0 62:0 63:0 64:0 65:0 66:0 67:0 68:0 69:0 70:0 71:0 72:0 73:24 
1 0:419 1:26 2:0 3:0 4:0 5:0 6:0 7:0 8:26 9:0 10:0 11:0 12:0 13:0 14:0 15:0 16:0 17:0 18:0 19:0 20:26 21:0 22:0 23:0 24:0 25:0 26:0 27:0 28:0 29:0 30:0 31:0 32:0 33:0 34:0 35:0 36:0 37:0 38:0 39:0 40:26 41:26 42:0 43:0 44:26 45:26 46:0 47:26 48:0 49:0 50:0 51:0 52:26 53:0 54:0 55:26 56:0 57:0 58:0 59:0 60:0 61:0 62:0 63:0 64:0 65:0 66:0 67:0 68:0 69:0 70:0 71:0 72:0 73:26 
1 0:422 1:24 2:0 3:0 4:0 5:0 6:0 7:0 8:24 9:0 10:0 11:0 12:0 13:0 14:0 15:0 16:0 17:0 18:0 19:0 20:24 21:0 22:0 23:0 24:0 25:0 26:0 27:0 28:0 29:0 30:0 31:0 32:0 33:0 34:0 35:0 36:0 37:0 38:0 39:0 40:24 41:24 42:0 43:0 44:24 45:24 46:0 47:24 48:0 49:0 50:0 51:0 52:24 53:0 54:0 55:24 56:0 57:0 58:0 59:0 60:0 61:0 62:0 63:0 64:0 65:0 66:0 67:0 68:0 69:0 70:0 71:0 72:0 73:24 
1 0:423 1:24 2:0 3:0 4:0 5:0 6:0 7:0 8:24 9:0 10:0 11:0 12:0 13:0 14:0 15:0 16:0 17:0 18:0 19:0 20:24 21:0 22:0 23:0 24:0 25:0 26:0 27:0 28:0 29:0 30:0 31:0 32:0 33:0 34:0 35:0 36:0 37:0 38:0 39:0 40:24 41:24 42:0 43:0 44:24 45:24 46:0 47:24 48:0 49:0 50:0 51:0 52:24 53:0 54:0 55:24 56:0 57:0 58:0 59:0 60:0 61:0 62:0 63:0 64:0 65:0 66:0 67:0 68:0 69:0 70:0 71:0 72:0 73:24 
1 0:424 1:26 2:0 3:0 4:0 5:0 6:0 7:0 8:26 9:0 10:0 11:0 12:0 13:0 14:0 15:0 16:0 17:0 18:0 19:0 20:26 21:0 22:0 23:0 24:0 25:0 26:0 27:0 28:0 29:0 30:0 31:0 32:0 33:0 34:0 35:0 36:0 37:0 38:0 39:0 40:26 41:26 42:0 43:0 44:26 45:26 46:0 47:26 48:0 49:0 50:0 51:0 52:26 53:0 54:0 55:26 56:0 57:0 58:0 59:0 60:0 61:0 62:0 63:0 64:0 65:0 66:0 67:0 68:0 69:0 70:0 71:0 72:0 73:26 
0.8497051985336106 0:426 1:29 2:0 3:0 4:0 5:0 6:0 7:0 8:29 9:0 10:0 11:0 12:0 13:0 14:0 15:0 16:0 17:0 18:0 19:0 20:29 21:0 22:0 23:0 24:0 25:0 26:0 27:0 28:0 29:0 30:0 31:0 32:0 33:0 34:0 35:0 36:0 37:0 38:0 39:0 40:29 41:29 42:0 43:0 44:29 45:29 46:0 47:29 48:0 49:0 50:0 51:0 52:29 53:0 54:0 55:29 56:0 57:0 58:0 59:0 60:0 61:0 62:0 63:0 64:0 65:0 66:0 67:0 68:0 69:0 70:0 71:0 72:0 73:29 
1 0:429 1:31 2:0 3:0 4:0 5:0 6:0 7:0 8:31 9:0 10:0 11:0 12:0 13:0 14:0 15:0 16:0 17:0 18:0 19:0 20:31 21:0 22:0 23:0 24:0 25:0 26:0 27:0 28:0 29:0 30:0 31:0 32:0 33:0 34:0 35:0 36:0 37:0 38:0 39:0 40:31 41:31 42:0 43:0 44:31 45:31 46:0 47:31 48:0 49:0 50:0 51:0 52:31 53:0 54:0 55:31 56:0 57:0 58:0 59:0 60:0 61:0 62:0 63:0 64:0 65:0 66:0 67:0 68:0 69:0 70:0 71:0 72:0 73:31 
1 0:433 1:34 2:0 3:0 4:0 5:0 6:0 7:0 8:34 9:0 10:0 11:0 12:0 13:0 14:0 15:0 16:0 17:0 18:0 19:0 20:34 21:0 22:0 23:0 24:0 25:0 26:0 27:0 28:0 29:0 30:0 31:0 32:0 33:0 34:0 35:0 36:0 37:0 38:0 39:0 40:34 41:34 42:0 43:0 44:34 45:34 46:0 47:34 48:0 49:0 50:0 51:0 52:34 53:0 54:0 55:34 56:0 57:0 58:0 59:0 60:0 61:0 62:0 63:0 64:0 65:0 66:0 67:0 68:0 69:0 70:0 71:0 72:0 73:34 
1 0:438 1:58 2:0 3:0 4:0 5:0 6:0 7:0 8:0 9:0 10:58 11:0 12:0 13:0 14:0 15:0 16:0 17:0 18:0 19:0 20:58 21:0 22:58 23:0 24:58 25:0 26:0 27:0 28:0 29:0 30:0 31:0 32:0 33:0 34:0 35:0 36:0 37:0 38:0 39:0 40:0 41:0 42:0 43:0 44:0 45:58 46:0 47:58 48:0 49:0 50:0 51:0 52:0 53:0 54:0 55:58 56:0 57:0 58:0 59:0 60:0 61:0 62:0 63:0 64:0 65:0 66:0 67:0 68:0 69:0 70:58 71:0 72:0 73:0 
1 0:442 1:58 2:0 3:0 4:0 5:0 6:0 7:0 8:0 9:0 10:58 11:0 12:0 13:0 14:0 15:0 16:0 17:0 18:0 19:0 20:58 21:0 22:58 23:0 24:58 25:0 26:0 27:0 28:0 29:0 30:0 31:0 32:0 33:0 34:0 35:0 36:0 37:0 38:0 39:0 40:0 41:0 42:0 43:0 44:0 45:58 46:0 47:58 48:0 49:0 50:0 51:0 52:0 53:0 54:0 55:58 56:0 57:0 58:0 59:0 60:0 61:0 62:0 63:0 64:0 65:0 66:0 67:0 68:0 69:0 70:58 71:0 72:0 73:0 
1 0:443 1:58 2:0 3:0 4:0 5:0 6:0 7:0 8:0 9:0 10:58 11:0 12:0 13:0 14:0 15:0 16:0 17:0 18:0 19:0 20:58 21:0 22:58 23:0 24:58 25:0 26:0 27:0 28:0 29:0 30:0 31:0 32:0 33:0 34:0 35:0 36:0 37:0 38:0 39:0 40:0 41:0 42:0 43:0 44:0 45:58 46:0 47:58 48:0 49:0 50:0 51:0 52:0 53:0 54:0 55:58 56:0 57:0 58:0 59:0 60:0 61:0 62:0 63:0 64:0 65:0 66:0 67:0 68:0 69:0 70:58 71:0 72:0 73:0 
1 0:444 1:58 2:0 3:0 4:0 5:0 6:0 7:0 8:0 9:0 10:58 11:0 12:0 13:0 14:0 15:0 16:0 17:0 18:0 19:0 20:58 21:0 22:58 23:0 24:58 25:0 26:0 27:0 28:0 29:0 30:0 31:0 32:0 33:0 34:0 35:0 36:0 37:0 38:0 39:0 40:0 41:0 42:0 43:0 44:0 45:58 46:0 47:58 48:0 49:0 50:0 51:0 52:0 53:0 54:0 55:58 56:0 57:0 58:0 59:0 60:0 61:0 62:0 63:0 64:0 65:0 66:0 67:0 68:0 69:0 70:58 71:0 72:0 73:0 
1 0:446 1:58 2:0 3:0 4:0 5:0 6:0 7:0 8:0 9:0 10:58 11:0 12:0 13:0 14:0 15:0 16:0 17:0 18:0 19:0 20:58 21:0 22:58 23:0 24:58 25:0 26:0 27:0 28:0 29:0 30:0 31:0 32:0 33:0 34:0 35:0 36:0 37:0 38:0 39:0 40:0 41:0 42:0 43:0 44:0 45:58 46:0 47:58 48:0 49:0 50:0 51:0 52:0 53:0 54:0 55:58 56:0 57:0 58:0 59:0 60:0 61:0 62:0 63:0 64:0 65:0 66:0 67:0 68:0 69:0 70:58 71:0 72:0 73:0 
1 0:447 1:58 2:0 3:0 4:0 5:0 6:0 7:0 8:0 9:0 10:58 11:0 12:0 13:0 14:0 15:0 16:0 17:0 18:0 19:0 20:58 21:0 22:58 23:0 24:58 25:0 26:0 27:0 28:0 29:0 30:0 31:0 32:0 33:0 34:0 35:0 36:0 37:0 38:0 39:0 40:0 41:0 42:0 43:0 44:0 45:58 46:0 47:58 48:0 49:0 50:0 51:0 52:0 53:0 54:0 55:58 56:0 57:0 58:0 59:0 60:0 61:0 62:0 63:0 64:0 65:0 66:0 67:0 68:0 69:0 70:58 71:0 72:0 73:0 
1 0:449 1:58 2:0 3:0 4:0 5:0 6:0 7:0 8:0 9:0 10:58 11:0 12:0 13:0 14:0 15:0 16:0 17:0 18:0 19:0 20:58 21:0 22:58 23:0 24:58 25:0 26:0 27:0 28:0 29:0 30:0 31:0 32:0 33:0 34:0 35:0 36:0 37:0 38:0 39:0 40:0 41:0 42:0 43:0 44:0 45:58 46:0 47:58 48:0 49:0 50:0 51:0 52:0 53:0 54:0 55:58 56:0 57:0 58:0 59:0 60:0 61:0 62:0 63:0 64:0 65:0 66:0 67:0 68:0 69:0 70:58 71:0 72:0 73:0 
1 0:451 1:58 2:0 3:0 4:0 5:0 6:0 7:0 8:0 9:0 10:58 11:0 12:0 13:0 14:0 15:0 16:0 17:0 18:0 19:0 20:58 21:0 22:58 23:0 24:58 25:0 26:0 27:0 28:0 29:0 30:0 31:0 32:0 33:0 34:0 35:0 36:0 37:0 38:0 39:0 40:0 41:0 42:0 43:0 44:0 45:58 46:0 47:58 48:0 49:0 50:0 51:0 52:0 53:0 54:0 55:58 56:0 57:0 58:0 59:0 60:0 61:0 62:0 63:0 64:0 65:0 66:0 67:0 68:0 69:0 70:58 71:0 72:0 73:0 
0.89483224162908093 0:456 1:59 2:0 3:0 4:0 5:0 6:0 7:0 8:0 9:0 10:59 11:0 12:0 13:0 14:0 15:0 16:0 17:0 18:0 19:0 20:59 21:0 22:59 23:0 24:59 25:0 26:0 27:0 28:0 29:0 30:0 31:0 32:0 33:0 34:0 35:0 36:0 37:0 38:0 39:0 40:0 41:0 42:0 43:0 44:0 45:59 46:0 47:59 48:0 49:0 50:0 51:0 52:0 53:0 54:0 55:59 56:0 57:0 58:0 59:0 60:0 61:0 62:0 63:0 64:0 65:0 66:0 67:0 68:0 69:0 70:59 71:0 72:0 73:0 
0.35354077729858219 0:553 1:61 2:0 3:0 4:0 5:0 6:0 7:0 8:0 9:0 10:61 11:0 12:0 13:0 14:0 15:0 16:0 17:0 18:0 19:0 20:61 21:0 22:61 23:0 24:61 25:0 26:0 27:0 28:0 29:0 30:0 31:0 32:0 33:0 34:0 35:0 36:0 37:0 38:0 39:0 40:0 41:0 42:0 43:0 44:0 45:61 46:0 47:61 48:0 49:0 50:0 51:0 52:0 53:0 54:0 55:61 56:0 57:0 58:0 59:0 60:0 61:0 62:0 63:0 64:0 65:0 66:0 67:0 68:0 69:0 70:61 71:0 72:0 73:0 
1 0:556 1:61 2:0 3:0 4:0 5:0 6:0 7:0 8:0 9:0 10:61 11:0 12:0 13:0 14:0 15:0 16:0 17:0 18:0 19:0 20:61 21:0 22:61 23:0 24:61 25:0 26:0 27:0 28:0 29:0 30:0 31:0 32:0 33:0 34:0 35:0 36:0 37:0 38:0 39:0 40:0 41:0 42:0 43:0 44:0 45:61 46:0 47:61 48:0 49:0 50:0 51:0 52:0 53:0 54:0 55:61 56:0 57:0 58:0 59:0 60:0 61:0 62:0 63:0 64:0 65:0 66:0 67:0 68:0 69:0 70:61 71:0 72:0 73:0 
1 0:557 1:61 2:0 3:0 4:0 5:0 6:0 7:0 8:0 9:0 10:61 11:0 12:0 13:0 14:0 15:0 16:0 17:0 18:0 19:0 20:61 21:0 22:61 23:0 24:61 25:0 26:0 27:0 28:0 29:0 30:0 31:0 32:0 33:0 34:0 35:0 36:0 37:0 38:0 39:0 40:0 41:0 42:0 43:0 44:0 45:61 46:0 47:61 48:0 49:0 50:0 51:0 52:0 53:0 54:0 55:61 56:0 57:0 58:0 59:0 60:0 61:0 62:0 63:0 64:0 65:0 66:0 67:0 68:0 69:0 70:61 71:0 72:0 73:0 
1 0:562 1:61 2:0 3:0 4:0 5:0 6:0 7:0 8:0 9:0 10:61 11:0 12:0 13:0 14:0 15:0 16:0 17:0 18:0 19:0 20:61 21:0 22:61 23:0 24:61 25:0 26:0 27:0 28:0 29:0 30:0 31:0 32:0 33:0 34:0 35:0 36:0 37:0 38:0 39:0 40:0 41:0 42:0 43:0 44:0 45:61 46:0 47:61 48:0 49:0 50:0 51:0 52:0 53:0 54:0 55:61 56:0 57:0 58:0 59:0 60:0 61:0 62:0 63:0 64:0 65:0 66:0 67:0 68:0 69:0 70:61 71:0 72:0 73:0 
1 0:564 1:61 2:0 3:0 4:0 5:0 6:0 7:0 8:0 9:0 10:61 11:0 12:0 13:0 14:0 15:0 16:0 17:0 18:0 19:0 20:61 21:0 22:61 23:0 24:61 25:0 26:0 27:0 28:0 29:0 30:0 31:0 32:0 33:0 34:0 35:0 36:0 37:0 38:0 39:0 40:0 41:0 42:0 43:0 44:0 45:61 46:0 47:61 48:0 49:0 50:0 51:0 52:0 53:0 54:0 55:61 56:0 57:0 58:0 59:0 60:0 61:0 62:0 63:0 64:0 65:0 66:0 67:0 68:0 69:0 70:61 71:0 72:0 73:0 
1 0:571 1:61 2:0 3:0 4:0 5:0 6:0 7:0 8:0 9:0 10:61 11:0 12:0 13:0 14:0 15:0 16:0 17:0 18:0 19:0 20:61 21:0 22:61 23:0 24:61 25:0 26:0 27:0 28:0 29:0 30:0 31:0 32:0 33:0 34:0 35:0 36:0 37:0 38:0 39:0 40:0 41:0 42:0 43:0 44:0 45:61 46:0 47:61 48:0 49:0 50:0 51:0 52:0 53:0 54:0 55:61 56:0 57:0 58:0 59:0 60:0 61:0 62:0 63:0 64:0 65:0 66:0 67:0 68:0 69:0 70:61 71:0 72:0 73:0 
1 0:572 1:61 2:0 3:0 4:0 5:0 6:0 7:0 8:0 9:0 10:61 11:0 12:0 13:0 14:0 15:0 16:0 17:0 18:0 19:0 20:61 21:0 22:61 23:0 24:61 25:0 26:0 27:0 28:0 29:0 30:0 31:0 32:0 33:0 34:0 35:0 36:0 37:0 38:0 39:0 40:0 41:0 42:0 43:0 44:0 45:61 46:0 47:61 48:0 49:0 50:0 51:0 52:0 53:0 54:0 55:61 56:0 57:0 58:0 59:0 60:0 61:0 62:0 63:0 64:0 65:0 66:0 67:0 68:0 69:0 70:61 71:0 72:0 73:0 
0.44485649933149207 0:573 1:61 2:0 3:0 4:0 5:0 6:0 7:0 8:0 9:0 10:61 11:0 12:0 13:0 14:0 15:0 16:0 17:0 18:0 19:0 20:61 21:0 22:61 23:0 24:61 25:0 26:0 27:0 28:0 29:0 30:0 31:0 32:0 33:0 34:0 35:0 36:0 37:0 38:0 39:0 40:0 41:0 42:0 43:0 44:0 45:61 46:0 47:61 48:0 49:0 50:0 51:0 52:0 53:0 54:0 55:61 56:0 57:0 58:0 59:0 60:0 61:0 62:0 63:0 64:0 65:0 66:0 67:0 68:0 69:0 70:61 71:0 72:0 73:0 
0.81430409832965234 0:650 1:61 2:0 3:0 4:0 5:0 6:0 7:0 8:0 9:0 10:61 11:0 12:0 13:0 14:0 15:0 16:0 17:0 18:0 19:0 20:61 21:0 22:61 23:0 24:61 25:0 26:0 27:0 28:0 29:0 30:0 31:0 32:0 33:0 34:0 35:0 36:0 37:0 38:0 39:0 40:0 41:0 42:0 43:0 44:0 45:61 46:0 47:61 48:0 49:0 50:0 51:0 52:0 53:0 54:0 55:61 56:0 57:0 58:0 59:0 60:0 61:0 62:0 63:0 64:0 65:0 66:0 67:0 68:0 69:0 70:61 71:0 72:0 73:0 
1 0:653 1:61 2:0 3:0 4:0 5:0 6:0 7:0 8:0 9:0 10:61 11:0 12:0 13:0 14:0 15:0 16:0 17:0 18:0 19:0 20:61 21:0 22:61 23:0 24:61 25:0 26:0 27:0 28:0 29:0 30:0 31:0 32:0 33:0 34:0 35:0 36:0 37:0 38:0 39:0 40:0 41:0 42:0 43:0 44:0 45:61 46:0 47:61 48:0 49:0 50:0 51:0 52:0 53:0 54:0 55:61 56:0 57:0 58:0 59:0 60:0 61:0 62:0 63:0 64:0 65:0 66:0 67:0 68:0 69:0 70:61 71:0 72:0 73:0 
1 0:654 1:61 2:0 3:0 4:0 5:0 6:0 7:0 8:0 9:0 10:61 11:0 12:0 13:0 14:0 15:0 16:0 17:0 18:0 19:0 20:61 21:0 22:61 23:0 24:61 25:0 26:0 27:0 28:0 29:0 30:0 31:0 32:0 33:0 34:0 35:0 36:0 37:0 38:0 39:0 40:0 41:0 42:0 43:0 44:0 45:61 46:0 47:61 48:0 49:0 50:0 51:0 52:0 53:0 54:0 55:61 56:0 57:0 58:0 59:0 60:0 61:0 62:0 63:0 64:0 65:0 66:0 67:0 68:0 69:0 70:61 71:0 72:0 73:0 
1 0:659 1:61 2:0 3:0 4:0 5:0 6:0 7:0 8:0 9:0 10:61 11:0 12:0 13:0 14:0 15:0 16:0 17:0 18:0 19:0 20:61 21:0 22:61 23:0 24:61 25:0 26:0 27:0 28:0 29:0 30:0 31:0 32:0 33:0 34:0 35:0 36:0 37:0 38:0 39:0 40:0 41:0 42:0 43:0 44:0 45:61 46:0 47:61 48:0 49:0 50:0 51:0 52:0 53:0 54:0 55:61 56:0 57:0 58:0 59:0 60:0 61:0 62:0 63:0 64:0 65:0 66:0 67:0 68:0 69:0 70:61 71:0 72:0 73:0 
1 0:662 1:61 2:0 3:0 4:0 5:0 6:0 7:0 8:0 9:0 10:61 11:0 12:0 13:0 14:0 15:0 16:0 17:0 18:0 19:0 20:61 21:0 22:61 23:0 24:61 25:0 26:0 27:0 28:0 29:0 30:0 31:0 32:0 33:0 34:0 35:0 36:0 37:0 38:0 39:0 40:0 41:0 42:0 43:0 44:0 45:61 46:0 47:61 48:0 49:0 50:0 51:0 52:0 53:0 54:0 55:61 56:0 57:0 58:0 59:0 60:0 61:0 62:0 63:0 64:0 65:0 66:0 67:0 68:0 69:0 70:61 71:0 72:0 73:0 
1 0:663 1:61 2:0 3:0 4:0 5:0 6:0 7:0 8:0 9:0 10:61 11:0 12:0 13:0 14:0 15:0 16:0 17:0 18:0 19:0 20:61 21:0 22:61 23:0 24:61 25:0 26:0 27:0 28:0 29:0 30:0 31:0 32:0 33:0 34:0 35:0 36:0 37:0 38:0 39:0 40:0 41:0 42:0 43:0 44:0 45:61 46:0 47:61 48:0 49:0 50:0 51:0 52:0 53:0 54:0 55:61 56:0 57:0 58:0 59:0 60:0 61:0 62:0 63:0 64:0 65:0 66:0 67:0 68:0 69:0 70:61 71:0 72:0 73:0 
0.57528326389773443 0:667 1:61 2:0 3:0 4:0 5:0 6:0 7:0 8:0 9:0 10:61 11:0 12:0 13:0 14:0 15:0 16:0 17:0 18:0 19:0 20:61 21:0 22:61 23:0 24:61 25:0 26:0 27:0 28:0 29:0 30:0 31:0 32:0 33:0 34:0 35:0 36:0 37:0 38:0 39:0 40:0 41:0 42:0 43:0 44:0 45:61 46:0 47:61 48:0 49:0 50:0 51:0 52:0 53:0 54:0 55:61 56:0 57:0 58:0 59:0 60:0 61:0 62:0 63:0 64:0 65:0 66:0 67:0 68:0 69:0 70:61 71:0 72:0 73:0 
0.50189582665433929 0:753 1:61 2:0 3:0 4:0 5:0 6:0 7:0 8:0 9:0 10:61 11:0 12:0 13:0 14:0 15:0 16:0 17:0 18:0 19:0 20:61 21:0 22:61 23:0 24:61 25:0 26:0 27:0 28:0 29:0 30:0 31:0 32:0 33:0 34:0 35:0 36:0 37:0 38:0 39:0 40:0 41:0 42:0 43:0 44:0 45:61 46:0 47:61 48:0 49:0 50:0 51:0 52:0 53:0 54:0 55:61 56:0 57:0 58:0 59:0 60:0 61:0 62:0 63:0 64:0 65:0 66:0 67:0 68:0 69:0 70:61 71:0 72:0 73:0 
1 0:757 1:61 2:0 3:0 4:0 5:0 6:0 7:0 8:0 9:0 10:61 11:0 12:0 13:0 14:0 15:0 16:0 17:0 18:0 19:0 20:61 21:0 22:61 23:0 24:61 25:0 26:0 27:0 28:0 29:0 30:0 31:0 32:0 33:0 34:0 35:0 36:0 37:0 38:0 39:0 40:0 41:0 42:0 43:0 44:0 45:61 46:0 47:61 48:0 49:0 50:0 51:0 52:0 53:0 54:0 55:61 56:0 57:0 58:0 59:0 60:0 61:0 62:0 63:0 64:0 65:0 66:0 67:0 68:0 69:0 70:61 71:0 72:0 73:0 
1 0:760 1:61 2:0 3:0 4:0 5:0 6:0 7:0 8:0 9:0 10:61 11:0 12:0 13:0 14:0 15:0 16:0 17:0 18:0 19:0 20:61 21:0 22:61 23:0 24:61 25:0 26:0 27:0 28:0 29:0 30:0 31:0 32:0 33:0 34:0 35:0 36:0 37:0 38:0 39:0 40:0 41:0 42:0 43:0 44:0 45:61 46:0 47:61 48:0 49:0 50:0 51:0 52:0 53:0 54:0 55:61 56:0 57:0 58:0 59:0 60:0 61:0 62:0 63:0 64:0 65:0 66:0 67:0 68:0 69:0 70:61 71:0 72:0 73:0 
1 0:762 1:61 2:0 3:0 4:0 5:0 6:0 7:0 8:0 9:0 10:61 11:0 12:0 13:0 14:0 15:0 16:0 17:0 18:0 19:0 20:61 21:0 22:61 23:0 24:61 25:0 26:0 27:0 28:0 29:0 30:0 31:0 32:0 33:0 34:0 35:0 36:0 37:0 38:0 39:0 40:0 41:0 42:0 43:0 44:0 45:61 46:0 47:61 48:0 49:0 50:0 51:0 52:0 53:0 54:0 55:61 56:0 57:0 58:0 59:0 60:0 61:0 62:0 63:0 64:0 65:0 66:0 67:0 68:0 69:0 70:61 71:0 72:0 73:0 
1 0:763 1:61 2:0 3:0 4:0 5:0 6:0 7:0 8:0 9:0 10:61 11:0 12:0 13:0 14:0 15:0 16:0 17:0 18:0 19:0 20:61 21:0 22:61 23:0 24:61 25:0 26:0 27:0 28:0 29:0 30:0 31:0 32:0 33:0 34:0 35:0 36:0 37:0 38:0 39:0 40:0 41:0 42:0 43:0 44:0 45:61 46:0 47:61 48:0 49:0 50:0 51:0 52:0 53:0 54:0 55:61 56:0 57:0 58:0 59:0 60:0 61:0 62:0 63:0 64:0 65:0 66:0 67:0 68:0 69:0 70:61 71:0 72:0 73:0 
1 0:764 1:61 2:0 3:0 4:0 5:0 6:0 7:0 8:0 9:0 10:61 11:0 12:0 13:0 14:0 15:0 16:0 17:0 18:0 19:0 20:61 21:0 22:61 23:0 24:61 25:0 26:0 27:0 28:0 29:0 30:0 31:0 32:0 33:0 34:0 35:0 36:0 37:0 38:0 39:0 40:0 41:0 42:0 43:0 44:0 45:61 46:0 47:61 48:0 49:0 50:0 51:0 52:0 53:0 54:0 55:61 56:0 57:0 58:0 59:0 60:0 61:0 62:0 63:0 64:0 65:0 66:0 67:0 68:0 69:0 70:61 71:0 72:0 73:0 
1 0:767 1:61 2:0 3:0 4:0 5:0 6:0 7:0 8:0 9:0 10:61 11:0 12:0 13:0 14:0 15:0 16:0 17:0 18:0 19:0 20:61 21:0 22:61 23:0 24:61 25:0 26:0 27:0 28:0 29:0 30:0 31:0 32:0 33:0 34:0 35:0 36:0 37:0 38:0 39:0 40:0 41:0 42:0 43:0 44:0 45:61 46:0 47:61 48:0 49:0 50:0 51:0 52:0 53:0 54:0 55:61 56:0 57:0 58:0 59:0 60:0 61:0 62:0 63:0 64:0 65:0 66:0 67:0 68:0 69:0 70:61 71:0 72:0 73:0 
0.27368123977646974 0:800 1:42 2:0 3:0 4:0 5:0 6:0 7:0 8:0 9:0 10:42 11:0 12:0 13:0 14:0 15:0 16:0 17:0 18:0 19:0 20:42 21:0 22:42 23:0 24:42 25:0 26:0 27:0 28:0 29:0 30:0 31:0 32:0 33:0 34:0 35:0 36:0 37:0 38:0 39:0 40:0 41:0 42:0 43:0 44:0 45:42 46:0 47:42 48:0 49:0 50:0 51:0 52:0 53:0 54:0 55:42 56:0 57:0 58:0 59:0 60:0 61:0 62:0 63:0 64:0 65:0 66:0 67:0 68:0 69:0 70:42 71:0 72:0 73:0 
1 0:807 1:36 2:0 3:0 4:0 5:0 6:0 7:0 8:0 9:0 10:36 11:0 12:0 13:0 14:0 15:0 16:0 17:0 18:0 19:0 20:36 21:0 22:36 23:0 24:36 25:0 26:0 27:0 28:0 29:0 30:0 31:0 32:0 33:0 34:0 35:0 36:0 37:0 38:0 39:0 40:0 41:0 42:0 43:0 44:0 45:36 46:0 47:36 48:0 49:0 50:0 51:0 52:0 53:0 54:0 55:36 56:0 57:0 58:0 59:0 60:0 61:0 62:0 63:0 64:0 65:0 66:0 67:0 68:0 69:0 70:36 71:0 72:0 73:0 
1 0:808 1:35 2:0 3:0 4:0 5:0 6:0 7:0 8:0 9:0 10:35 11:0 12:0 13:0 14:0 15:0 16:0 17:0 18:0 19:0 20:35 21:0 22:35 23:0 24:35 25:0 26:0 27:0 28:0 29:0 30:0 31:0 32:0 33:0 34:0 35:0 36:0 37:0 38:0 39:0 40:0 41:0 42:0 43:0 44:0 45:35 46:0 47:35 48:0 49:0 50:0 51:0 52:0 53:0 54:0 55:35 56:0 57:0 58:0 59:0 60:0 61:0 62:0 63:0 64:0 65:0 66:0 67:0 68:0 69:0 70:35 71:0 72:0 73:0 
1 0:810 1:34 2:0 3:0 4:0 5:0 6:0 7:0 8:0 9:0 10:34 11:0 12:0 13:0 14:0 15:0 16:0 17:0 18:0 19:0 20:34 21:0 22:34 23:0 24:34 25:0 26:0 27:0 28:0 29:0 30:0 31:0 32:0 33:0 34:0 35:0 36:0 37:0 38:0 39:0 40:0 41:0 42:0 43:0 44:0 45:34 46:0 47:34 48:0 49:0 50:0 51:0 52:0 53:0 54:0 55:34 56:0 57:0 58:0 59:0 60:0 61:0 62:0 63:0 64:0 65:0 66:0 67:0 68:0 69:0 70:34 71:0 72:0 73:0 
1 0:812 1:33 2:0 3:0 4:0 5:0 6:0 7:0 8:0 9:0 10:33 11:0 12:0 13:0 14:0 15:0 16:0 17:0 18:0 19:0 20:33 21:0 22:33 23:0 24:33 25:0 26:0 27:0 28:0 29:0 30:0 31:0 32:0 33:0 34:0 35:0 36:0 37:0 38:0 39:0 40:0 41:0 42:0 43:0 44:0 45:33 46:0 47:33 48:0 49:0 50:0 51:0 52:0 53:0 54:0 55:33 56:0 57:0 58:0 59:0 60:0 61:0 62:0 63:0 64:0 65:0 66:0 67:0 68:0 69:0 70:33 71:0 72:0 73:0 
1 0:814 1:32 2:0 3:0 4:0 5:0 6:0 7:0 8:0 9:0 10:32 11:0 12:0 13:0 14:0 15:0 16:0 17:0 18:0 19:0 20:32 21:0 22:32 23:0 24:32 25:0 26:0 27:0 28:0 29:0 30:0 31:0 32:0 33:0 34:0 35:0 36:0 37:0 38:0 39:0 40:0 41:0 42:0 43:0 44:0 45:32 46:0 47:32 48:0 49:0 50:0 51:0 52:0 53:0 54:0 55:32 56:0 57:0 58:0 59:0 60:0 61:0 62:0 63:0 64:0 65:0 66:0 67:0 68:0 69:0 70:32 71:0 72:0 73:0 
1 0:815 1:32 2:0 3:0 4:0 5:0 6:0 7:0 8:0 9:0 10:32 11:0 12:0 13:0 14:0 15:0 16:0 17:0 18:0 19:0 20:32 21:0 22:32 23:0 24:32 25:0 26:0 27:0 28:0 29:0 30:0 31:0 32:0 33:0 34:0 35:0 36:0 37:0 38:0 39:0 40:0 41:0 42:0 43:0 44:0 45:32 46:0 47:32 48:0 49:0 50:0 51:0 52:0 53:0 54:0 55:32 56:0 57:0 58:0 59:0 60:0 61:0 62:0 63:0 64:0 65:0 66:0 67:0 68:0 69:0 70:32 71:0 72:0 73:0 
1 0:822 1:51 2:0 3:0 4:0 5:0 6:0 7:0 8:51 9:0 10:0 11:0 12:0 13:0 14:0 15:0 16:0 17:0 18:0 19:0 20:51 21:0 22:0 23:0 24:0 25:0 26:0 27:0 28:0 29:0 30:0 31:0 32:0 33:0 34:0 35:0 36:0 37:0 38:0 39:0 40:0 41:0 42:0 43:0 44:50 45:50 46:50 47:0 48:0 49:0 50:0 51:0 52:1 53:0 54:0 55:51 56:0 57:0 58:0 59:0 60:0 61:0 62:0 63:0 64:0 65:0 66:0 67:0 68:0 69:0 70:0 71:0 72:0 73:50 
1 0:824 1:51 2:0 3:0 4:0 5:0 6:0 7:0 8:51 9:0 10:0 11:0 12:0 13:0 14:0 15:0 16:0 17:0 18:0 19:0 20:51 21:0 22:0 23:0 24:0 25:0 26:0 27:0 28:0 29:0 30:0 31:0 32:0 33:0 34:0 35:0 36:0 37:0 38:0 39:0 40:0 41:0 42:0 43:0 44:50 45:50 46:50 47:0 48:0 49:0 50:0 51:0 52:2 53:0 54:0 55:51 56:0 57:0 58:0 59:0 60:0 61:0 62:0 63:0 64:0 65:0 66:0 67:0 68:0 69:0 70:0 71:0 72:0 73:50 
1 0:826 1:50 2:0 3:0 4:0 5:0 6:0 7:0 8:50 9:0 10:0 11:0 12:0 13:0 14:0 15:0 16:0 17:0 18:0 19:0 20:50 21:0 22:0 23:0 24:0 25:0 26:0 27:0 28:0 29:0 30:0 31:0 32:0 33:0 34:0 35:0 36:0 37:0 38:0 39:0 40:0 41:0 42:0 43:0 44:49 45:49 46:49 47:0 48:0 49:0 50:0 51:0 52:2 53:0 54:0 55:50 56:0 57:0 58:0 59:0 60:0 61:0 62:0 63:0 64:0 65:0 66:0 67:0 68:0 69:0 70:0 71:0 72:0 73:49 
1 0:827 1:50 2:0 3:0 4:0 5:0 6:0 7:0 8:50 9:0 10:0 11:0 12:0 13:0 14:0 15:0 16:0 17:0 18:0 19:0 20:50 21:0 22:0 23:0 24:0 25:0 26:0 27:0 28:0 29:0 30:0 31:0 32:0 33:0 34:0 35:0 36:0 37:0 38:0 39:0 40:0 41:0 42:0 43:0 44:49 45:49 46:49 47:0 48:0 49:0 50:0 51:0 52:2 53:0 54:0 55:50 56:0 57:0 58:0 59:0 60:0 61:0 62:0 63:0 64:0 65:0 66:0 67:0 68:0 69:0 70:0 71:0 72:0 73:49 
1 0:828 1:49 2:0 3:0 4:0 5:0 6:0 7:0 8:49 9:0 10:0 11:0 12:0 13:0 14:0 15:0 16:0 17:0 18:0 19:0 20:49 21:0 22:0 23:0 24:0 25:0 26:0 27:0 28:0 29:0 30:0 31:0 32:0 33:0 34:0 35:0 36:0 37:0 38:0 39:0 40:0 41:0 42:0 43:0 44:48 45:48 46:48 47:0 48:0 49:0 50:0 51:0 52:2 53:0 54:0 55:49 56:0 57:0 58:0 59:0 60:0 61:0 62:0 63:0 64:0 65:0 66:0 67:0 68:0 69:0 70:0 71:0 72:0 73:48 
1 0:829 1:48 2:0 3:0 4:0 5:0 6:0 7:0 8:48 9:0 10:0 11:0 12:0 13:0 14:0 15:0 16:0 17:0 18:0 19:0 20:48 21:0 22:0 23:0 24:0 25:0 26:0 27:0 28:0 29:0 30:0 31:0 32:0 33:0 34:0 35:0 36:0 37:0 38:0 39:0 40:0 41:0 42:0 43:0 44:47 45:47 46:47 47:0 48:0 49:0 50:0 51:0 52:2 53:0 54:0 55:48 56:0 57:0 58:0 59:0 60:0 61:0 62:0 63:0 64:0 65:0 66:0 67:0 68:0 69:0 70:0 71:0 72:0 73:47 
1 0:831 1:47 2:0 3:0 4:0 5:0 6:0 7:0 8:47 9:0 10:0 11:0 12:0 13:0 14:0 15:0 16:0 17:0 18:0 19:0 20:47 21:0 22:0 23:0 24:0 25:0 26:0 27:0 28:0 29:0 30:0 31:0 32:0 33:0 34:0 35:0 36:0 37:0 38:0 39:0 40:0 41:0 42:0 43:0 44:46 45:46 46:46 47:0 48:0 49:0 50:0 51:0 52:2 53:0 54:0 55:47 56:0 57:0 58:0 59:0 60:0 61:0 62:0 63:0 64:0 65:0 66:0 67:0 68:0 69:0 70:0 71:0 72:0 73:46 
1 0:832 1:46 2:0 3:0 4:0 5:0 6:0 7:0 8:46 9:0 10:0 11:0 12:0 13:0 14:0 15:0 16:0 17:0 18:0 19:0 20:46 21:0 22:0 23:0 24:0 25:0 26:0 27:0 28:0 29:0 30:0 31:0 32:0 33:0 34:0 35:0 36:0 37:0 38:0 39:0 40:0 41:0 42:0 43:0 44:45 45:45 46:45 47:0 48:0 49:0 50:0 51:0 52:2 53:0 54:0 55:46 56:0 57:0 58:0 59:0 60:0 61:0 62:0 63:0 64:0 65:0 66:0 67:0 68:0 69:0 70:0 71:0 72:0 73:45 
0.053662392245730745 0:833 1:46 2:0 3:0 4:0 5:0 6:0 7:0 8:46 9:0 10:0 11:0 12:0 13:0 14:0 15:0 16:0 17:0 18:0 19:0 20:46 21:0 22:0 23:0 24:0 25:0 26:0 27:0 28:0 29:0 30:0 31:0 32:0 33:0 34:0 35:0 36:0 37:0 38:0 39:0 40:0 41:0 42:0 43:0 44:45 45:45 46:45 47:0 48:0 49:0 50:0 51:0 52:2 53:0 54:0 55:46 56:0 57:0 58:0 59:0 60:0 61:0 62:0 63:0 64:0 65:0 66:0 67:0 68:0 69:0 70:0 71:0 72:0 73:45 
0.69398720925292079 0:928 1:45 2:0 3:0 4:0 5:0 6:0 7:0 8:45 9:0 10:0 11:0 12:0 13:0 14:0 15:0 16:0 17:0 18:0 19:0 20:45 21:0 22:0 23:0 24:0 25:0 26:0 27:0 28:0 29:0 30:0 31:0 32:0 33:0 34:0 35:0 36:0 37:0 38:0 39:0 40:0 41:0 42:0 43:0 44:45 45:45 46:45 47:0 48:0 49:0 50:0 51:0 52:4 53:0 54:0 55:45 56:0 57:0 58:0 59:0 60:0 61:0 62:0 63:0 64:0 65:0 66:0 67:0 68:0 69:0 70:0 71:0 72:0 73:45 
1 0:929 1:45 2:0 3:0 4:0 5:0 6:0 7:0 8:45 9:0 10:0 11:0 12:0 13:0 14:0 15:0 16:0 17:0 18:0 19:0 20:45 21:0 22:0 23:0 24:0 25:0 26:0 27:0 28:0 29:0 30:0 31:0 32:0 33:0 34:0 35:0 36:0 37:0 38:0 39:0 40:0 41:0 42:0 43:0 44:45 45:45 46:45 47:0 48:0 49:0 50:0 51:0 52:4 53:0 54:0 55:45 56:0 57:0 58:0 59:0 60:0 61:0 62:0 63:0 64:0 65:0 66:0 67:0 68:0 69:0 70:0 71:0 72:0 73:45 
1 0:930 1:45 2:0 3:0 4:0 5:0 6:0 7:0 8:45 9:0 10:0 11:0 12:0 13:0 14:0 15:0 16:0 17:0 18:0 19:0 20:45 21:0 22:0 23:0 24:0 25:0 26:0 27:0 28:0 29:0 30:0 31:0 32:0 33:0 34:0 35:0 36:0 37:0 38:0 39:0 40:0 41:0 42:0 43:0 44:45 45:45 46:45 47:0 48:0 49:0 50:0 51:0 52:3 53:0 54:0 55:45 56:0 57:0 58:0 59:0 60:0 61:0 62:0 63:0 64:0 65:0 66:0 67:0 68:0 69:0 70:0 71:0 72:0 73:45 
0.6899653244308025 0:931 1:53 2:0 3:0 4:0 5:0 6:0 7:0 8:53 9:0 10:0 11:0 12:0 13:0 14:0 15:0 16:0 17:0 18:0 19:0 20:53 21:0 22:0 23:0 24:0 25:0 26:0 27:0 28:0 29:0 30:0 31:0 32:0 33:0 34:0 35:0 36:0 37:0 38:0 39:0 40:0 41:0 42:0 43:0 44:53 45:53 46:53 47:0 48:0 49:0 50:0 51:0 52:2 53:0 54:0 55:53 56:0 57:0 58:0 59:0 60:0 61:0 62:0 63:0 64:0 65:0 66:0 67:0 68:0 69:0 70:0 71:0 72:0 73:53 
1 0:937 1:53 2:0 3:0 4:0 5:0 6:0 7:0 8:53 9:0 10:0 11:0 12:0 13:0 14:0 15:0 16:0 17:0 18:0 19:0 20:53 21:0 22:0 23:0 24:0 25:0 26:0 27:0 28:0 29:0 30:0 31:0 32:0 33:0 34:0 35:0 36:0 37:0 38:0 39:0 40:0 41:0 42:0 43:0 44:53 45:53 46:53 47:0 48:0 49:0 50:0 51:0 52:2 53:0 54:0 55:53 56:0 57:0 58:0 59:0 60:0 61:0 62:0 63:0 64:0 65:0 66:0 67:0 68:0 69:0 70:0 71:0 72:0 73:53 
1 0:942 1:53 2:0 3:0 4:0 5:0 6:0 7:0 8:53 9:0 10:0 11:0 12:0 13:0 14:0 15:0 16:0 17:0 18:0 19:0 20:53 21:0 22:0 23:0 24:0 25:0 26:0 27:0 28:0 29:0 30:0 31:0 32:0 33:0 34:0 35:0 36:0 37:0 38:0 39:0 40:0 41:0 42:0 43:0 44:53 45:53 46:53 47:0 48:0 49:0 50:0 51:0 52:1 53:0 54:0 55:53 56:0 57:0 58:0 59:0 60:0 61:0 62:0 63:0 64:0 65:0 66:0 67:0 68:0 69:0 70:0 71:0 72:0 73:53 
0.46565874055782147 0:954 1:53 2:0 3:0 4:0 5:0 6:0 7:0 8:53 9:0 10:0 11:0 12:0 13:0 14:0 15:0 16:0 17:0 18:0 19:0 20:53 21:0 22:0 23:0 24:0 25:0 26:0 27:0 28:0 29:0 30:0 31:0 32:0 33:0 34:0 35:0 36:0 37:0 38:0 39:0 40:0 41:0 42:0 43:0 44:53 45:53 46:53 47:0 48:0 49:0 50:0 51:0 52:1 53:0 54:0 55:53 56:0 57:0 58:0 59:0 60:0 61:0 62:0 63:0 64:0 65:0 66:0 67:0 68:0 69:0 70:0 71:0 72:0 73:53 
1 0:1002 1:53 2:0 3:0 4:0 5:0 6:0 7:0 8:53 9:0 10:0 11:0 12:0 13:0 14:0 15:0 16:0 17:0 18:0 19:0 20:53 21:0 22:0 23:0 24:0 25:0 26:0 27:0 28:0 29:0 30:0 31:0 32:0 33:0 34:0 35:0 36:0 37:0 38:0 39:0 40:0 41:0 42:0 43:0 44:52 45:53 46:53 47:0 48:0 49:0 50:0 51:0 52:6 53:0 54:0 55:53 56:0 57:0 58:0 59:0 60:0 61:0 62:0 63:0 64:0 65:0 66:0 67:0 68:0 69:0 70:0 71:0 72:0 73:52 
0.17142320802794142 0:1006 1:52 2:0 3:0 4:0 5:0 6:0 7:0 8:52 9:0 10:0 11:0 12:0 13:0 14:0 15:0 16:0 17:0 18:0 19:0 20:52 21:0 22:0 23:0 24:0 25:0 26:0 27:0 28:0 29:0 30:0 31:0 32:0 33:0 34:0 35:0 36:0 37:0 38:0 39:0 40:0 41:0 42:0 43:0 44:51 45:52 46:52 47:0 48:0 49:0 50:0 51:0 52:6 53:0 54:0 55:52 56:0 57:0 58:0 59:0 60:0 61:0 62:0 63:0 64:0 65:0 66:0 67:0 68:0 69:0 70:0 71:0 72:0 73:51 
1 0:1012 1:52 2:0 3:0 4:0 5:0 6:0 7:0 8:52 9:0 10:0 11:0 12:0 13:0 14:0 15:0 16:0 17:0 18:0 19:0 20:52 21:0 22:0 23:0 24:0 25:0 26:0 27:0 28:0 29:0 30:0 31:0 32:0 33:0 34:0 35:0 36:0 37:0 38:0 39:0 40:0 41:0 42:0 43:0 44:51 45:52 46:52 47:0 48:0 49:0 50:0 51:0 52:6 53:0 54:0 55:52 56:0 57:0 58:0 59:0 60:0 61:0 62:0 63:0 64:0 65:0 66:0 67:0 68:0 69:0 70:0 71:0 72:0 73:51 
0.092258232486351413 0:1013 1:52 2:0 3:0 4:0 5:0 6:0 7:0 8:52 9:0 10:0 11:0 12:0 13:0 14:0 15:0 16:0 17:0 18:0 19:0 20:52 21:0 22:0 23:0 24:0 25:0 26:0 27:0 28:0 29:0 30:0 31:0 32:0 33:0 34:0 35:0 36:0 37:0 38:0 39:0 40:0 41:0 42:0 43:0 44:52 45:52 46:52 47:0 48:0 49:0 50:0 51:0 52:5 53:0 54:0 55:52 56:0 57:0 58:0 59:0 60:0 61:0 62:0 63:0 64:0 65:0 66:0 67:0 68:0 69:0 70:0 71:0 72:0 73:52 
1 0:1014 1:53 2:0 3:0 4:0 5:0 6:0 7:0 8:53 9:0 10:0 11:0 12:0 13:0 14:0 15:0 16:0 17:0 18:0 19:0 20:53 21:0 22:0 23:0 24:0 25:0 26:0 27:0 28:0 29:0 30:0 31:0 32:0 33:0 34:0 35:0 36:0 37:0 38:0 39:0 40:0 41:0 42:0 43:0 44:53 45:53 46:53 47:0 48:0 49:0 50:0 51:0 52:5 53:0 54:0 55:53 56:0 57:0 58:0 59:0 60:0 61:0 62:0 63:0 64:0 65:0 66:0 67:0 68:0 69:0 70:0 71:0 72:0 73:53 
1 0:1015 1:53 2:0 3:0 4:0 5:0 6:0 7:0 8:53 9:0 10:0 11:0 12:0 13:0 14:0 15:0 16:0 17:0 18:0 19:0 20:53 21:0 22:0 23:0 24:0 25:0 26:0 27:0 28:0 29:0 30:0 31:0 32:0 33:0 34:0 35:0 36:0 37:0 38:0 39:0 40:0 41:0 42:0 43:0 44:53 45:53 46:53 47:0 48:0 49:0 50:0 51:0 52:5 53:0 54:0 55:53 56:0 57:0 58:0 59:0 60:0 61:0 62:0 63:0 64:0 65:0 66:0 67:0 68:0 69:0 70:0 71:0 72:0 73:53 
0.68271872218105933 0:1017 1:52 2:0 3:0 4:0 5:0 6:0 7:0 8:52 9:0 10:0 11:0 12:0 13:0 14:0 15:0 16:0 17:0 18:0 19:0 20:52 21:0 22:0 23:0 24:0 25:0 26:0 27:0 28:0 29:0 30:0 31:0 32:0 33:0 34:0 35:0 36:0 37:0 38:0 39:0 40:0 41:0 42:0 43:0 44:52 45:52 46:52 47:0 48:0 49:0 50:0 51:0 52:5 53:0 54:0 55:52 56:0 57:0 58:0 59:0 60:0 61:0 62:0 63:0 64:0 65:0 66:0 67:0 68:0 69:0 70:0 71:0 72:0 73:52 
1 0:1020 1:53 2:0 3:0 4:0 5:0 6:0 7:0 8:53 9:0 10:0 11:0 12:0 13:0 14:0 15:0 16:0 17:0 18:0 19:0 20:53 21:0 22:0 23:0 24:0 25:0 26:0 27:0 28:0 29:0 30:0 31:0 32:0 33:0 34:0 35:0 36:0 37:0 38:0 39:0 40:0 41:0 42:0 43:0 44:53 45:53 46:53 47:0 48:0 49:0 50:0 51:0 52:5 53:0 54:0 55:53 56:0 57:0 58:0 59:0 60:0 61:0 62:0 63:0 64:0 65:0 66:0 67:0 68:0 69:0 70:0 71:0 72:0 73:53 
0.52220469135604286 0:1115 1:52 2:0 3:0 4:0 5:0 6:0 7:0 8:52 9:0 10:0 11:0 12:0 13:0 14:0 15:0 16:0 17:0 18:0 19:0 20:52 21:0 22:0 23:0 24:0 25:0 26:0 27:0 28:0 29:0 30:0 31:0 32:0 33:0 34:0 35:0 36:0 37:0 38:0 39:0 40:0 41:0 42:0 43:0 44:52 45:52 46:52 47:0 48:0 49:0 50:0 51:0 52:1 53:0 54:0 55:52 56:0 57:0 58:0 59:0 60:0 61:0 62:0 63:0 64:0 65:0 66:0 67:0 68:0 69:0 70:0 71:0 72:0 73:52 
1 0:1117 1:53 2:0 3:0 4:0 5:0 6:0 7:0 8:53 9:0 10:0 11:0 12:0 13:0 14:0 15:0 16:0 17:0 18:0 19:0 20:53 21:0 22:0 23:0 24:0 25:0 26:0 27:0 28:0 29:0 30:0 31:0 32:0 33:0 34:0 35:0 36:0 37:0 38:0 39:0 40:0 41:0 42:0 43:0 44:53 45:53 46:53 47:0 48:0 49:0 50:0 51:0 52:1 53:0 54:0 55:53 56:0 57:0 58:0 59:0 60:0 61:0 62:0 63:0 64:0 65:0 66:0 67:0 68:0 69:0 70:0 71:0 72:0 73:53 
1 0:1120 1:52 2:0 3:0 4:0 5:0 6:0 7:0 8:52 9:0 10:0 11:0 12:0 13:0 14:0 15:0 16:0 17:0 18:0 19:0 20:52 21:0 22:0 23:0 24:0 25:0 26:0 27:0 28:0 29:0 30:0 31:0 32:0 33:0 34:0 35:0 36:0 37:0 38:0 39:0 40:0 41:0 42:0 43:0 44:52 45:52 46:52 47:0 48:0 49:0 50:0 51:0 52:0 53:0 54:0 55:52 56:0 57:0 58:0 59:0 60:0 61:0 62:0 63:0 64:0 65:0 66:0 67:0 68:0 69:0 70:0 71:0 72:0 73:52 
1 0:1122 1:53 2:0 3:0 4:0 5:0 6:0 7:0 8:53 9:0 10:0 11:0 12:0 13:0 14:0 15:0 16:0 17:0 18:0 19:0 20:53 21:0 22:0 23:0 24:0 25:0 26:0 27:0 28:0 29:0 30:0 31:0 32:0 33:0 34:0 35:0 36:0 37:0 38:0 39:0 40:0 41:0 42:0 43:0 44:53 45:53 46:53 47:0 48:0 49:0 50:0 51:0 52:0 53:0 54:0 55:53 56:0 57:0 58:0 59:0 60:0 61:0 62:0 63:0 64:0 65:0 66:0 67:0 68:0 69:0 70:0 71:0 72:0 73:53 
1 0:1124 1:52 2:0 3:0 4:0 5:0 6:0 7:0 8:52 9:0 10:0 11:0 12:0 13:0 14:0 15:0 16:0 17:0 18:0 19:0 20:52 21:0 22:0 23:0 24:0 25:0 26:0 27:0 28:0 29:0 30:0 31:0 32:0 33:0 34:0 35:0 36:0 37:0 38:0 39:0 40:0 41:0 42:0 43:0 44:52 45:52 46:52 47:0 48:0 49:0 50:0 51:0 52:0 53:0 54:0 55:52 56:0 57:0 58:0 59:0 60:0 61:0 62:0 63:0 64:0 65:0 66:0 67:0 68:0 69:0 70:0 71:0 72:0 73:52 
1 0:1127 1:52 2:0 3:0 4:0 5:0 6:0 7:0 8:52 9:0 10:0 11:0 12:0 13:0 14:0 15:0 16:0 17:0 18:0 19:0 20:52 21:0 22:0 23:0 24:0 25:0 26:0 27:0 28:0 29:0 30:0 31:0 32:0 33:0 34:0 35:0 36:0 37:0 38:0 39:0 40:0 41:0 42:0 43:0 44:52 45:52 46:52 47:0 48:0 49:0 50:0 51:0 52:0 53:0 54:0 55:52 56:0 57:0 58:0 59:0 60:0 61:0 62:0 63:0 64:0 65:0 66:0 67:0 68:0 69:0 70:0 71:0 72:0 73:52 
1 0:1136 1:52 2:0 3:0 4:0 5:0 6:0 7:0 8:52 9:0 10:0 11:0 12:0 13:0 14:0 15:0 16:0 17:0 18:0 19:0 20:52 21:0 22:0 23:0 24:0 25:0 26:0 27:0 28:0 29:0 30:0 31:0 32:0 33:0 34:0 35:0 36:0 37:0 38:0 39:0 40:0 41:0 42:0 43:0 44:52 45:52 46:52 47:0 48:0 49:0 50:0 51:0 52:1 53:0 54:0 55:52 56:0 57:0 58:0 59:0 60:0 61:0 62:0 63:0 64:0 65:0 66:0 67:0 68:0 69:0 70:0 71:0 72:0 73:52 
1 0:1139 1:52 2:0 3:0 4:0 5:0 6:0 7:0 8:52 9:0 10:0 11:0 12:0 13:0 14:0 15:0 16:0 17:0 18:0 19:0 20:52 21:0 22:0 23:0 24:0 25:0 26:0 27:0 28:0 29:0 30:0 31:0 32:0 33:0 34:0 35:0 36:0 37:0 38:0 39:0 40:0 41:0 42:0 43:0 44:52 45:52 46:52 47:0 48:0 49:0 50:0 51:0 52:1 53:0 54:0 55:52 56:0 57:0 58:0 59:0 60:0 61:0 62:0 63:0 64:0 65:0 66:0 67:0 68:0 69:0 70:0 71:0 72:0 73:52 
1 0:1140 1:53 2:0 3:0 4:0 5:0 6:0 7:0 8:53 9:0 10:0 11:0 12:0 13:0 14:0 15:0 16:0 17:0 18:0 19:0 20:53 21:0 22:0 23:0 24:0 25:0 26:0 27:0 28:0 29:0 30:0 31:0 32:0 33:0 34:0 35:0 36:0 37:0 38:0 39:0 40:0 41:0 42:0 43:0 44:53 45:53 46:53 47:0 48:0 49:0 50:0 51:0 52:1 53:0 54:0 55:53 56:0 57:0 58:0 59:0 60:0 61:0 62:0 63:0 64:0 65:0 66:0 67:0 68:0 69:0 70:0 71:0 72:0 73:53 
1 0:1144 1:52 2:0 3:0 4:0 5:0 6:0 7:0 8:52 9:0 10:0 11:0 12:0 13:0 14:0 15:0 16:0 17:0 18:0 19:0 20:52 21:0 22:0 23:0 24:0 25:0 26:0 27:0 28:0 29:0 30:0 31:0 32:0 33:0 34:0 35:0 36:0 37:0 38:0 39:0 40:0 41:0 42:0 43:0 44:52 45:52 46:52 47:0 48:0 49:0 50:0 51:0 52:1 53:0 54:0 55:52 56:0 57:0 58:0 59:0 60:0 61:0 62:0 63:0 64:0 65:0 66:0 67:0 68:0 69:0 70:0 71:0 72:0 73:52 
1 0:1146 1:58 2:0 3:0 4:55 5:0 6:0 7:0 8:0 9:0 10:0 11:0 12:3 13:0 14:0 15:0 16:0 17:0 18:0 19:0 20:0 21:0 22:0 23:0 24:0 25:0 26:0 27:0 28:58 29:0 30:0 31:0 32:0 33:0 34:0 35:0 36:48 37:0 38:0 39:0 40:57 41:37 42:0 43:0 44:43 45:46 46:31 47:56 48:0 49:0 50:0 51:0 52:0 53:58 54:0 55:57 56:0 57:0 58:0 59:0 60:0 61:0 62:0 63:0 64:0 65:0 66:0 67:0 68:0 69:0 70:58 71:0 72:0 73:44 
1 0:1151 1:60 2:0 3:0 4:57 5:0 6:0 7:0 8:0 9:0 10:0 11:0 12:3 13:0 14:0 15:0 16:0 17:0 18:0 19:0 20:0 21:0 22:0 23:0 24:0 25:0 26:0 27:0 28:60 29:0 30:0 31:0 32:0 33:0 34:0 35:0 36:50 37:0 38:0 39:0 40:59 41:39 42:0 43:0 44:45 45:49 46:32 47:58 48:0 49:0 50:0 51:0 52:0 53:60 54:0 55:59 56:0 57:0 58:0 59:0 60:0 61:0 62:0 63:0 64:0 65:0 66:0 67:0 68:0 69:0 70:60 71:0 72:0 73:46 
1 0:1154 1:65 2:0 3:0 4:62 5:0 6:0 7:0 8:0 9:0 10:0 11:0 12:3 13:0 14:0 15:0 16:0 17:0 18:0 19:0 20:0 21:0 22:0 23:0 24:0 25:0 26:0 27:0 28:65 29:0 30:0 31:0 32:0 33:0 34:0 35:0 36:54 37:0 38:0 39:0 40:64 41:44 42:0 43:0 44:50 45:53 46:36 47:63 48:0 49:0 50:0 51:0 52:0 53:65 54:0 55:64 56:0 57:0 58:0 59:0 60:0 61:0 62:0 63:0 64:0 65:0 66:0 67:0 68:0 69:0 70:65 71:0 72:0 73:49 
1 0:1155 1:64 2:0 3:0 4:61 5:0 6:0 7:0 8:0 9:0 10:0 11:0 12:3 13:0 14:0 15:0 16:0 17:0 18:0 19:0 20:0 21:0 22:0 23:0 24:0 25:0 26:0 27:0 28:64 29:0 30:0 31:0 32:0 33:0 34:0 35:0 36:54 37:0 38:0 39:0 40:63 41:43 42:0 43:0 44:50 45:52 46:35 47:62 48:0 49:0 50:0 51:0 52:0 53:64 54:0 55:63 56:0 57:0 58:0 59:0 60:0 61:0 62:0 63:0 64:0 65:0 66:0 67:0 68:0 69:0 70:64 71:0 72:0 73:49 
1 0:1157 1:64 2:0 3:0 4:61 5:0 6:0 7:0 8:0 9:0 10:0 11:0 12:3 13:0 14:0 15:0 16:0 17:0 18:0 19:0 20:0 21:0 22:0 23:0 24:0 25:0 26:0 27:0 28:64 29:0 30:0 31:0 32:0 33:0 34:0 35:0 36:53 37:0 38:0 39:0 40:63 41:44 42:0 43:0 44:50 45:52 46:37 47:62 48:0 49:0 50:0 51:0 52:0 53:63 54:0 55:62 56:0 57:0 58:0 59:0 60:0 61:0 62:0 63:0 64:0 65:0 66:0 67:0 68:0 69:0 70:64 71:0 72:0 73:48 
1 0:1161 1:65 2:0 3:0 4:62 5:0 6:0 7:0 8:0 9:0 10:0 11:0 12:3 13:0 14:0 15:0 16:0 17:0 18:0 19:0 20:0 21:0 22:0 23:0 24:0 25:0 26:0 27:0 28:64 29:0 30:0 31:0 32:0 33:0 34:0 35:0 36:54 37:0 38:0 39:0 40:64 41:44 42:0 43:0 44:52 45:52 46:37 47:63 48:0 49:0 50:0 51:0 52:0 53:64 54:0 55:63 56:0 57:0 58:0 59:0 60:0 61:0 62:0 63:0 64:0 65:0 66:0 67:0 68:0 69:0 70:65 71:0 72:0 73:50 
1 0:1172 1:65 2:0 3:0 4:62 5:0 6:0 7:0 8:0 9:0 10:0 11:0 12:3 13:0 14:0 15:0 16:0 17:0 18:0 19:0 20:0 21:0 22:0 23:0 24:0 25:0 26:0 27:0 28:64 29:0 30:0 31:0 32:0 33:0 34:0 35:0 36:54 37:0 38:0 39:0 40:64 41:47 42:0 43:0 44:53 45:53 46:40 47:63 48:0 49:0 50:0 51:0 52:0 53:64 54:0 55:63 56:0 57:0 58:0 59:0 60:0 61:0 62:0 63:0 64:0 65:0 66:0 67:0 68:0 69:0 70:65 71:0 72:0 73:51 
1 0:1174 1:66 2:0 3:0 4:64 5:0 6:0 7:0 8:0 9:0 10:0 11:0 12:2 13:0 14:0 15:0 16:0 17:0 18:0 19:0 20:0 21:0 22:0 23:0 24:0 25:0 26:0 27:0 28:65 29:0 30:0 31:0 32:0 33:0 34:0 35:0 36:54 37:0 38:0 39:0 40:65 41:49 42:0 43:0 44:53 45:54 46:41 47:64 48:0 49:0 50:0 51:0 52:0 53:65 54:0 55:64 56:0 57:0 58:0 59:0 60:0 61:0 62:0 63:0 64:0 65:0 66:0 67:0 68:0 69:0 70:66 71:0 72:0 73:52 
0.77581231845810095 0:1176 1:64 2:0 3:0 4:62 5:0 6:0 7:0 8:0 9:0 10:0 11:0 12:2 13:0 14:0 15:0 16:0 17:0 18:0 19:0 20:0 21:0 22:0 23:0 24:0 25:0 26:0 27:0 28:63 29:0 30:0 31:0 32:0 33:0 34:0 35:0 36:53 37:0 38:0 39:0 40:63 41:47 42:0 43:0 44:52 45:52 46:39 47:62 48:0 49:0 50:0 51:0 52:0 53:63 54:0 55:62 56:0 57:0 58:0 59:0 60:0 61:0 62:0 63:0 64:0 65:0 66:0 67:0 68:0 69:0 70:64 71:0 72:0 73:51 
1 0:1247 1:65 2:0 3:0 4:62 5:0 6:0 7:0 8:0 9:0 10:0 11:0 12:3 13:0 14:0 15:0 16:0 17:0 18:0 19:0 20:0 21:0 22:0 23:0 24:0 25:0 26:0 27:0 28:64 29:0 30:0 31:0 32:0 33:0 34:0 35:0 36:54 37:0 38:0 39:0 40:65 41:43 42:0 43:0 44:54 45:56 46:43 47:65 48:0 49:0 50:0 51:0 52:0 53:65 54:0 55:63 56:0 57:0 58:0 59:0 60:0 61:0 62:0 63:0 64:0 65:0 66:0 67:0 68:0 69:0 70:61 71:0 72:0 73:56 
1 0:1254 1:65 2:0 3:0 4:62 5:0 6:0 7:0 8:0 9:0 10:0 11:0 12:3 13:0 14:0 15:0 16:0 17:0 18:0 19:0 20:0 21:0 22:0 23:0 24:0 25:0 26:0 27:0 28:64 29:0 30:0 31:0 32:0 33:0 34:0 35:0 36:55 37:0 38:0 39:0 40:65 41:43 42:0 43:0 44:55 45:56 46:44 47:65 48:0 49:0 50:0 51:0 52:0 53:65 54:0 55:64 56:0 57:0 58:0 59:0 60:0 61:0 62:0 63:0 64:0 65:0 66:0 67:0 68:0 69:0 70:60 71:0 72:0 73:57 
1 0:1260 1:63 2:0 3:0 4:60 5:0 6:0 7:0 8:0 9:0 10:0 11:0 12:3 13:0 14:0 15:0 16:0 17:0 18:0 19:0 20:0 21:0 22:0 23:0 24:0 25:0 26:0 27:0 28:62 29:0 30:0 31:0 32:0 33:0 34:0 35:0 36:53 37:0 38:0 39:0 40:63 41:44 42:0 43:0 44:54 45:55 46:44 47:63 48:0 49:0 50:0 51:0 52:0 53:63 54:0 55:63 56:0 57:0 58:0 59:0 60:0 61:0 62:0 63:0 64:0 65:0 66:0 67:0 68:0 69:0 70:57 71:0 72:0 73:55 
1 0:1262 1:65 2:0 3:0 4:62 5:0 6:0 7:0 8:0 9:0 10:0 11:0 12:3 13:0 14:0 15:0 16:0 17:0 18:0 19:0 20:0 21:0 22:0 23:0 24:0 25:0 26:0 27:0 28:64 29:0 30:0 31:0 32:0 33:0 34:0 35:0 36:56 37:0 38:0 39:0 40:65 41:45 42:0 43:0 44:55 45:57 46:45 47:65 48:0 49:0 50:0 51:0 52:0 53:65 54:0 55:65 56:0 57:0 58:0 59:0 60:0 61:0 62:0 63:0 64:0 65:0 66:0 67:0 68:0 69:0 70:59 71:0 72:0 73:56 
1 0:1273 1:61 2:0 3:0 4:58 5:0 6:0 7:0 8:0 9:0 10:0 11:0 12:3 13:0 14:0 15:0 16:0 17:0 18:0 19:0 20:0 21:0 22:0 23:0 24:0 25:0 26:0 27:0 28:61 29:0 30:0 31:0 32:0 33:0 34:0 35:0 36:53 37:0 38:0 39:0 40:61 41:45 42:0 43:0 44:53 45:55 46:47 47:61 48:0 49:0 50:0 51:0 52:0 53:61 54:0 55:61 56:0 57:0 58:0 59:0 60:0 61:0 62:0 63:0 64:0 65:0 66:0 67:0 68:0 69:0 70:56 71:0 72:0 73:53 
0.1413040404965859 0:1274 1:59 2:0 3:0 4:56 5:0 6:0 7:0 8:0 9:0 10:0 11:0 12:3 13:0 14:0 15:0 16:0 17:0 18:0 19:0 20:0 21:0 22:0 23:0 24:0 25:0 26:0 27:0 28:59 29:0 30:0 31:0 32:0 33:0 34:0 35:0 36:51 37:0 38:0 39:0 40:59 41:43 42:0 43:0 44:51 45:53 46:45 47:59 48:0 49:0 50:0 51:0 52:0 53:59 54:0 55:59 56:0 57:0 58:0 59:0 60:0 61:0 62:0 63:0 64:0 65:0 66:0 67:0 68:0 69:0 70:54 71:0 72:0 73:51 
1 0:1275 1:59 2:0 3:0 4:56 5:0 6:0 7:0 8:0 9:0 10:0 11:0 12:3 13:0 14:0 15:0 16:0 17:0 18:0 19:0 20:0 21:0 22:0 23:0 24:0 25:0 26:0 27:0 28:59 29:0 30:0 31:0 32:0 33:0 34:0 35:0 36:51 37:0 38:0 39:0 40:59 41:43 42:0 43:0 44:51 45:53 46:45 47:59 48:0 49:0 50:0 51:0 52:0 53:59 54:0 55:59 56:0 57:0 58:0 59:0 60:0 61:0 62:0 63:0 64:0 65:0 66:0 67:0 68:0 69:0 70:54 71:0 72:0 73:51 
1 0:1323 1:42 2:0 3:0 4:42 5:0 6:0 7:0 8:0 9:0 10:0 11:0 12:0 13:0 14:0 15:0 16:0 17:0 18:0 19:0 20:0 21:0 22:0 23:0 24:0 25:0 26:0 27:0 28:38 29:0 30:0 31:0 32:0 33:0 34:0 35:0 36:31 37:0 38:0 39:0 40:42 41:30 42:0 43:0 44:28 45:31 46:25 47:41 48:0 49:0 50:0 51:0 52:0 53:42 54:0 55:42 56:0 57:0 58:0 59:0 60:0 61:0 62:0 63:0 64:0 65:0 66:0 67:0 68:0 69:0 70:36 71:0 72:0 73:32 
1 0:1324 1:42 2:0 3:0 4:42 5:0 6:0 7:0 8:0 9:0 10:0 11:0 12:0 13:0 14:0 15:0 16:0 17:0 18:0 19:0 20:0 21:0 22:0 23:0 24:0 25:0 26:0 27:0 28:38 29:0 30:0 31:0 32:0 33:0 34:0 35:0 36:31 37:0 38:0 39:0 40:42 41:30 42:0 43:0 44:28 45:31 46:24 47:41 48:0 49:0 50:0 51:0 52:0 53:42 54:0 55:42 56:0 57:0 58:0 59:0 60:0 61:0 62:0 63:0 64:0 65:0 66:0 67:0 68:0 69:0 70:36 71:0 72:0 73:31 
1 0:1326 1:43 2:0 3:0 4:43 5:0 6:0 7:0 8:0 9:0 10:0 11:0 12:0 13:0 14:0 15:0 16:0 17:0 18:0 19:0 20:0 21:0 22:0 23:0 24:0 25:0 26:0 27:0 28:39 29:0 30:0 31:0 32:0 33:0 34:0 35:0 36:32 37:0 38:0 39:0 40:43 41:29 42:0 43:0 44:29 45:33 46:24 47:42 48:0 49:0 50:0 51:0 52:0 53:43 54:0 55:43 56:0 57:0 58:0 59:0 60:0 61:0 62:0 63:0 64:0 65:0 66:0 67:0 68:0 69:0 70:37 71:0 72:0 73:33 
1 0:1328 1:41 2:0 3:0 4:41 5:0 6:0 7:0 8:0 9:0 10:0 11:0 12:0 13:0 14:0 15:0 16:0 17:0 18:0 19:0 20:0 21:0 22:0 23:0 24:0 25:0 26:0 27:0 28:37 29:0 30:0 31:0 32:0 33:0 34:0 35:0 36:30 37:0 38:0 39:0 40:41 41:27 42:0 43:0 44:27 45:31 46:22 47:40 48:0 49:0 50:0 51:0 52:0 53:41 54:0 55:41 56:0 57:0 58:0 59:0 60:0 61:0 62:0 63:0 64:0 65:0 66:0 67:0 68:0 69:0 70:35 71:0 72:0 73:31 
1 0:1329 1:40 2:0 3:0 4:40 5:0 6:0 7:0 8:0 9:0 10:0 11:0 12:0 13:0 14:0 15:0 16:0 17:0 18:0 19:0 20:0 21:0 22:0 23:0 24:0 25:0 26:0 27:0 28:36 29:0 30:0 31:0 32:0 33:0 34:0 35:0 36:29 37:0 38:0 39:0 40:40 41:26 42:0 43:0 44:26 45:30 46:21 47:39 48:0 49:0 50:0 51:0 52:0 53:40 54:0 55:40 56:0 57:0 58:0 59:0 60:0 61:0 62:0 63:0 64:0 65:0 66:0 67:0 68:0 69:0 70:34 71:0 72:0 73:30 
0.8831516095543126 0:1341 1:44 2:0 3:0 4:44 5:0 6:0 7:0 8:0 9:0 10:0 11:0 12:0 13:0 14:0 15:0 16:0 17:0 18:0 19:0 20:0 21:0 22:0 23:0 24:0 25:0 26:0 27:0 28:36 29:0 30:0 31:0 32:0 33:0 34:0 35:0 36:29 37:0 38:0 39:0 40:44 41:29 42:0 43:0 44:28 45:35 46:20 47:43 48:0 49:0 50:0 51:0 52:0 53:44 54:0 55:44 56:0 57:0 58:0 59:0 60:0 61:0 62:0 63:0 64:0 65:0 66:0 67:0 68:0 69:0 70:34 71:0 72:0 73:32 
1 0:1352 1:42 2:0 3:0 4:42 5:0 6:0 7:0 8:0 9:0 10:0 11:0 12:0 13:0 14:0 15:0 16:0 17:0 18:0 19:0 20:0 21:0 22:0 23:0 24:0 25:0 26:0 27:0 28:35 29:0 30:0 31:0 32:0 33:0 34:0 35:0 36:29 37:0 38:0 39:0 40:42 41:28 42:0 43:0 44:28 45:34 46:20 47:42 48:0 49:0 50:0 51:0 52:0 53:42 54:0 55:42 56:0 57:0 58:0 59:0 60:0 61:0 62:0 63:0 64:0 65:0 66:0 67:0 68:0 69:0 70:33 71:0 72:0 73:30 
1 0:1354 1:42 2:0 3:0 4:42 5:0 6:0 7:0 8:0 9:0 10:0 11:0 12:0 13:0 14:0 15:0 16:0 17:0 18:0 19:0 20:0 21:0 22:0 23:0 24:0 25:0 26:0 27:0 28:34 29:0 30:0 31:0 32:0 33:0 34:0 35:0 36:28 37:0 38:0 39:0 40:42 41:29 42:0 43:0 44:27 45:35 46:20 47:42 48:0 49:0 50:0 51:0 52:0 53:42 54:0 55:42 56:0 57:0 58:0 59:0 60:0 61:0 62:0 63:0 64:0 65:0 66:0 67:0 68:0 69:0 70:32 71:0 72:0 73:29 
0.028858648796436674 0:1414 1:54 2:0 3:0 4:54 5:0 6:0 7:0 8:0 9:0 10:0 11:0 12:0 13:0 14:0 15:0 16:0 17:0 18:0 19:0 20:0 21:0 22:0 23:0 24:0 25:0 26:0 27:0 28:48 29:0 30:0 31:0 32:0 33:0 34:0 35:0 36:46 37:0 38:0 39:0 40:54 41:43 42:0 43:0 44:42 45:47 46:36 47:54 48:0 49:0 50:0 51:0 52:0 53:54 54:0 55:53 56:0 57:0 58:0 59:0 60:0 61:0 62:0 63:0 64:0 65:0 66:0 67:0 68:0 69:0 70:48 71:0 72:0 73:44 
1 0:1444 1:55 2:0 3:0 4:55 5:0 6:0 7:0 8:0 9:0 10:0 11:0 12:0 13:0 14:0 15:0 16:0 17:0 18:0 19:0 20:0 21:0 22:0 23:0 24:0 25:0 26:0 27:0 28:48 29:0 30:0 31:0 32:0 33:0 34:0 35:0 36:47 37:0 38:0 39:0 40:55 41:47 42:0 43:0 44:43 45:49 46:37 47:55 48:0 49:0 50:0 51:0 52:0 53:55 54:0 55:53 56:0 57:0 58:0 59:0 60:0 61:0 62:0 63:0 64:0 65:0 66:0 67:0 68:0 69:0 70:47 71:0 72:0 73:46 
1 0:1445 1:55 2:0 3:0 4:55 5:0 6:0 7:0 8:0 9:0 10:0 11:0 12:0 13:0 14:0 15:0 16:0 17:0 18:0 19:0 20:0 21:0 22:0 23:0 24:0 25:0 26:0 27:0 28:48 29:0 30:0 31:0 32:0 33:0 34:0 35:0 36:47 37:0 38:0 39:0 40:55 41:47 42:0 43:0 44:43 45:49 46:37 47:55 48:0 49:0 50:0 51:0 52:0 53:55 54:0 55:53 56:0 57:0 58:0 59:0 60:0 61:0 62:0 63:0 64:0 65:0 66:0 67:0 68:0 69:0 70:47 71:0 72:0 73:46 
0.36439761369651957 0:1452 1:53 2:0 3:0 4:53 5:0 6:0 7:0 8:0 9:0 10:0 11:0 12:0 13:0 14:0 15:0 16:0 17:0 18:0 19:0 20:0 21:0 22:0 23:0 24:0 25:0 26:0 27:0 28:47 29:0 30:0 31:0 32:0 33:0 34:0 35:0 36:46 37:0 38:0 39:0 40:53 41:45 42:0 43:0 44:41 45:46 46:35 47:53 48:0 49:0 50:0 51:0 52:0 53:53 54:0 55:52 56:0 57:0 58:0 59:0 60:0 61:0 62:0 63:0 64:0 65:0 66:0 67:0 68:0 69:0 70:46 71:0 72:0 73:43 
1 0:1456 1:55 2:0 3:0 4:55 5:0 6:0 7:0 8:0 9:0 10:0 11:0 12:0 13:0 14:0 15:0 16:0 17:0 18:0 19:0 20:0 21:0 22:0 23:0 24:0 25:0 26:0 27:0 28:48 29:0 30:0 31:0 32:0 33:0 34:0 35:0 36:47 37:0 38:0 39:0 40:55 41:47 42:0 43:0 44:42 45:48 46:37 47:55 48:0 49:0 50:0 51:0 52:0 53:55 54:0 55:54 56:0 57:0 58:0 59:0 60:0 61:0 62:0 63:0 64:0 65:0 66:0 67:0 68:0 69:0 70:47 71:0 72:0 73:43 
1 0:1457 1:54 2:0 3:0 4:54 5:0 6:0 7:0 8:0 9:0 10:0 11:0 12:0 13:0 14:0 15:0 16:0 17:0 18:0 19:0 20:0 21:0 22:0 23:0 24:0 25:0 26:0 27:0 28:47 29:0 30:0 31:0 32:0 33:0 34:0 35:0 36:46 37:0 38:0 39:0 40:54 41:46 42:0 43:0 44:41 45:47 46:36 47:54 48:0 49:0 50:0 51:0 52:0 53:54 54:0 55:53 56:0 57:0 58:0 59:0 60:0 61:0 62:0 63:0 64:0 65:0 66:0 67:0 68:0 69:0 70:46 71:0 72:0 73:42 
1 0:1459 1:53 2:0 3:0 4:53 5:0 6:0 7:0 8:0 9:0 10:0 11:0 12:0 13:0 14:0 15:0 16:0 17:0 18:0 19:0 20:0 21:0 22:0 23:0 24:0 25:0 26:0 27:0 28:46 29:0 30:0 31:0 32:0 33:0 34:0 35:0 36:45 37:0 38:0 39:0 40:53 41:45 42:0 43:0 44:40 45:46 46:35 47:53 48:0 49:0 50:0 51:0 52:0 53:53 54:0 55:52 56:0 57:0 58:0 59:0 60:0 61:0 62:0 63:0 64:0 65:0 66:0 67:0 68:0 69:0 70:45 71:0 72:0 73:41 
1 0:1468 1:50 2:0 3:0 4:50 5:0 6:0 7:0 8:0 9:0 10:0 11:0 12:0 13:0 14:0 15:0 16:0 17:0 18:0 19:0 20:0 21:0 22:0 23:0 24:0 25:0 26:0 27:0 28:44 29:0 30:0 31:0 32:0 33:0 34:0 35:0 36:42 37:0 38:0 39:0 40:50 41:43 42:0 43:0 44:37 45:43 46:33 47:50 48:0 49:0 50:0 51:0 52:0 53:50 54:0 55:49 56:0 57:0 58:0 59:0 60:0 61:0 62:0 63:0 64:0 65:0 66:0 67:0 68:0 69:0 70:42 71:0 72:0 73:37 
1 0:1469 1:50 2:0 3:0 4:50 5:0 6:0 7:0 8:0 9:0 10:0 11:0 12:0 13:0 14:0 15:0 16:0 17:0 18:0 19:0 20:0 21:0 22:0 23:0 24:0 25:0 26:0 27:0 28:44 29:0 30:0 31:0 32:0 33:0 34:0 35:0 36:42 37:0 38:0 39:0 40:50 41:43 42:0 43:0 44:37 45:43 46:33 47:50 48:0 49:0 50:0 51:0 52:0 53:50 54:0 55:49 56:0 57:0 58:0 59:0 60:0 61:0 62:0 63:0 64:0 65:0 66:0 67:0 68:0 69:0 70:42 71:0 72:0 73:37 
1 0:1470 1:48 2:0 3:0 4:48 5:0 6:0 7:0 8:0 9:0 10:0 11:0 12:0 13:0 14:0 15:0 16:0 17:0 18:0 19:0 20:0 21:0 22:0 23:0 24:0 25:0 26:0 27:0 28:43 29:0 30:0 31:0 32:0 33:0 34:0 35:0 36:41 37:0 38:0 39:0 40:48 41:41 42:0 43:0 44:36 45:41 46:31 47:48 48:0 49:0 50:0 51:0 52:0 53:48 54:0 55:47 56:0 57:0 58:0 59:0 60:0 61:0 62:0 63:0 64:0 65:0 66:0 67:0 68:0 69:0 70:41 71:0 72:0 73:36 
1 0:1471 1:47 2:0 3:0 4:47 5:0 6:0 7:0 8:0 9:0 10:0 11:0 12:0 13:0 14:0 15:0 16:0 17:0 18:0 19:0 20:0 21:0 22:0 23:0 24:0 25:0 26:0 27:0 28:42 29:0 30:0 31:0 32:0 33:0 34:0 35:0 36:40 37:0 38:0 39:0 40:47 41:40 42:0 43:0 44:36 45:40 46:31 47:47 48:0 49:0 50:0 51:0 52:0 53:47 54:0 55:46 56:0 57:0 58:0 59:0 60:0 61:0 62:0 63:0 64:0 65:0 66:0 67:0 68:0 69:0 70:40 71:0 72:0 73:35 
1 0:1475 1:41 2:0 3:0 4:0 5:35 6:6 7:0 8:0 9:0 10:0 11:0 12:0 13:0 14:0 15:0 16:0 17:0 18:0 19:0 20:0 21:0 22:0 23:0 24:0 25:0 26:0 27:0 28:0 29:0 30:0 31:0 32:0 33:0 34:0 35:0 36:0 37:0 38:0 39:0 40:41 41:41 42:0 43:0 44:41 45:0 46:0 47:41 48:41 49:0 50:0 51:0 52:0 53:0 54:0 55:41 56:0 57:0 58:0 59:0 60:0 61:0 62:0 63:0 64:0 65:0 66:0 67:0 68:0 69:0 70:0 71:0 72:0 73:0 
1 0:1483 1:43 2:0 3:0 4:0 5:36 6:7 7:0 8:0 9:0 10:0 11:0 12:0 13:0 14:0 15:0 16:0 17:0 18:0 19:0 20:0 21:0 22:0 23:0 24:0 25:0 26:0 27:0 28:0 29:0 30:0 31:0 32:0 33:0 34:0 35:0 36:0 37:0 38:0 39:0 40:43 41:43 42:0 43:0 44:43 45:0 46:0 47:43 48:43 49:0 50:0 51:0 52:0 53:0 54:0 55:43 56:0 57:0 58:0 59:0 60:0 61:0 62:0 63:0 64:0 65:0 66:0 67:0 68:0 69:0 70:0 71:0 72:0 73:0 
1 0:1484 1:47 2:0 3:0 4:0 5:39 6:8 7:0 8:0 9:0 10:0 11:0 12:0 13:0 14:0 15:0 16:0 17:0 18:0 19:0 20:0 21:0 22:0 23:0 24:0 25:0 26:0 27:0 28:0 29:0 30:0 31:0 32:0 33:0 34:0 35:0 36:0 37:0 38:0 39:0 40:47 41:47 42:0 43:0 44:47 45:0 46:0 47:47 48:47 49:0 50:0 51:0 52:0 53:0 54:0 55:47 56:0 57:0 58:0 59:0 60:0 61:0 62:0 63:0 64:0 65:0 66:0 67:0 68:0 69:0 70:0 71:0 72:0 73:0 
1 0:1485 1:46 2:0 3:0 4:0 5:38 6:8 7:0 8:0 9:0 10:0 11:0 12:0 13:0 14:0 15:0 16:0 17:0 18:0 19:0 20:0 21:0 22:0 23:0 24:0 25:0 26:0 27:0 28:0 29:0 30:0 31:0 32:0 33:0 34:0 35:0 36:0 37:0 38:0 39:0 40:46 41:46 42:0 43:0 44:46 45:0 46:0 47:46 48:46 49:0 50:0 51:0 52:0 53:0 54:0 55:46 56:0 57:0 58:0 59:0 60:0 61:0 62:0 63:0 64:0 65:0 66:0 67:0 68:0 69:0 70:0 71:0 72:0 73:0 
1 0:1486 1:45 2:0 3:0 4:0 5:37 6:8 7:0 8:0 9:0 10:0 11:0 12:0 13:0 14:0 15:0 16:0 17:0 18:0 19:0 20:0 21:0 22:0 23:0 24:0 25:0 26:0 27:0 28:0 29:0 30:0 31:0 32:0 33:0 34:0 35:0 36:0 37:0 38:0 39:0 40:45 41:45 42:0 43:0 44:45 45:0 46:0 47:45 48:45 49:0 50:0 51:0 52:0 53:0 54:0 55:45 56:0 57:0 58:0 59:0 60:0 61:0 62:0 63:0 64:0 65:0 66:0 67:0 68:0 69:0 70:0 71:0 72:0 73:0 
1 0:1490 1:44 2:0 3:0 4:0 5:37 6:7 7:0 8:0 9:0 10:0 11:0 12:0 13:0 14:0 15:0 16:0 17:0 18:0 19:0 20:0 21:0 22:0 23:0 24:0 25:0 26:0 27:0 28:0 29:0 30:0 31:0 32:0 33:0 34:0 35:0 36:0 37:0 38:0 39:0 40:44 41:44 42:0 43:0 44:44 45:0 46:0 47:44 48:44 49:0 50:0 51:0 52:0 53:0 54:0 55:44 56:0 57:0 58:0 59:0 60:0 61:0 62:0 63:0 64:0 65:0 66:0 67:0 68:0 69:0 70:0 71:0 72:0 73:0 
1 0:1504 1:53 2:0 3:0 4:0 5:48 6:5 7:0 8:0 9:0 10:0 11:0 12:0 13:0 14:0 15:0 16:0 17:0 18:0 19:0 20:0 21:0 22:0 23:0 24:0 25:0 26:0 27:0 28:0 29:0 30:0 31:0 32:0 33:0 34:0 35:0 36:0 37:0 38:0 39:0 40:53 41:53 42:0 43:0 44:53 45:0 46:0 47:53 48:53 49:0 50:0 51:0 52:0 53:0 54:0 55:53 56:0 57:0 58:0 59:0 60:0 61:0 62:0 63:0 64:0 65:0 66:0 67:0 68:0 69:0 70:0 71:0 72:0 73:0 
1 0:1510 1:51 2:0 3:0 4:0 5:47 6:4 7:0 8:0 9:0 10:0 11:0 12:0 13:0 14:0 15:0 16:0 17:0 18:0 19:0 20:0 21:0 22:0 23:0 24:0 25:0 26:0 27:0 28:0 29:0 30:0 31:0 32:0 33:0 34:0 35:0 36:0 37:0 38:0 39:0 40:51 41:51 42:0 43:0 44:51 45:0 46:0 47:51 48:51 49:0 50:0 51:0 52:0 53:0 54:0 55:51 56:0 57:0 58:0 59:0 60:0 61:0 62:0 63:0 64:0 65:0 66:0 67:0 68:0 69:0 70:0 71:0 72:0 73:0 
1 0:1551 1:53 2:0 3:0 4:0 5:47 6:6 7:0 8:0 9:0 10:0 11:0 12:0 13:0 14:0 15:0 16:0 17:0 18:0 19:0 20:0 21:0 22:0 23:0 24:0 25:0 26:0 27:0 28:0 29:0 30:0 31:0 32:0 33:0 34:0 35:0 36:0 37:0 38:0 39:0 40:53 41:53 42:0 43:0 44:53 45:0 46:0 47:53 48:53 49:0 50:0 51:0 52:0 53:0 54:0 55:53 56:0 57:0 58:0 59:0 60:0 61:0 62:0 63:0 64:0 65:0 66:0 67:0 68:0 69:0 70:0 71:0 72:0 73:0 
0.12846241798699254 0:1558 1:52 2:0 3:0 4:0 5:45 6:7 7:0 8:0 9:0 10:0 11:0 12:0 13:0 14:0 15:0 16:0 17:0 18:0 19:0 20:0 21:0 22:0 23:0 24:0 25:0 26:0 27:0 28:0 29:0 30:0 31:0 32:0 33:0 34:0 35:0 36:0 37:0 38:0 39:0 40:52 41:52 42:0 43:0 44:52 45:0 46:0 47:52 48:52 49:0 50:0 51:0 52:0 53:0 54:0 55:52 56:0 57:0 58:0 59:0 60:0 61:0 62:0 63:0 64:0 65:0 66:0 67:0 68:0 69:0 70:0 71:0 72:0 73:0 
1 0:1589 1:27 2:0 3:0 4:0 5:25 6:2 7:0 8:0 9:0 10:0 11:0 12:0 13:0 14:0 15:0 16:0 17:0 18:0 19:0 20:0 21:0 22:0 23:0 24:0 25:0 26:0 27:0 28:0 29:0 30:0 31:0 32:0 33:0 34:0 35:0 36:0 37:0 38:0 39:0 40:27 41:27 42:0 43:0 44:27 45:0 46:0 47:27 48:27 49:0 50:0 51:0 52:0 53:0 54:0 55:27 56:0 57:0 58:0 59:0 60:0 61:0 62:0 63:0 64:0 65:0 66:0 67:0 68:0 69:0 70:0 71:0 72:0 73:0 
1 0:1590 1:26 2:0 3:0 4:0 5:24 6:2 7:0 8:0 9:0 10:0 11:0 12:0 13:0 14:0 15:0 16:0 17:0 18:0 19:0 20:0 21:0 22:0 23:0 24:0 25:0 26:0 27:0 28:0 29:0 30:0 31:0 32:0 33:0 34:0 35:0 36:0 37:0 38:0 39:0 40:26 41:26 42:0 43:0 44:26 45:0 46:0 47:26 48:26 49:0 50:0 51:0 52:0 53:0 54:0 55:26 56:0 57:0 58:0 59:0 60:0 61:0 62:0 63:0 64:0 65:0 66:0 67:0 68:0 69:0 70:0 71:0 72:0 73:0 
1 0:1600 1:25 2:0 3:0 4:0 5:23 6:2 7:0 8:0 9:0 10:0 11:0 12:0 13:0 14:0 15:0 16:0 17:0 18:0 19:0 20:0 21:0 22:0 23:0 24:0 25:0 26:0 27:0 28:0 29:0 30:0 31:0 32:0 33:0 34:0 35:0 36:0 37:0 38:0 39:0 40:25 41:25 42:0 43:0 44:25 45:0 46:0 47:25 48:25 49:0 50:0 51:0 52:0 53:0 54:0 55:25 56:0 57:0 58:0 59:0 60:0 61:0 62:0 63:0 64:0 65:0 66:0 67:0 68:0 69:0 70:0 71:0 72:0 73:0 
0.91855635595806429 0:1601 1:27 2:0 3:0 4:0 5:24 6:3 7:0 8:0 9:0 10:0 11:0 12:0 13:0 14:0 15:0 16:0 17:0 18:0 19:0 20:0 21:0 22:0 23:0 24:0 25:0 26:0 27:0 28:0 29:0 30:0 31:0 32:0 33:0 34:0 35:0 36:0 37:0 38:0 39:0 40:27 41:27 42:0 43:0 44:27 45:0 46:0 47:27 48:27 49:0 50:0 51:0 52:0 53:0 54:0 55:27 56:0 57:0 58:0 59:0 60:0 61:0 62:0 63:0 64:0 65:0 66:0 67:0 68:0 69:0 70:0 71:0 72:0 73:0 
1 0:1606 1:26 2:0 3:0 4:0 5:24 6:2 7:0 8:0 9:0 10:0 11:0 12:0 13:0 14:0 15:0 16:0 17:0 18:0 19:0 20:0 21:0 22:0 23:0 24:0 25:0 26:0 27:0 28:0 29:0 30:0 31:0 32:0 33:0 34:0 35:0 36:0 37:0 38:0 39:0 40:26 41:26 42:0 43:0 44:26 45:0 46:0 47:26 48:26 49:0 50:0 51:0 52:0 53:0 54:0 55:26 56:0 57:0 58:0 59:0 60:0 61:0 62:0 63:0 64:0 65:0 66:0 67:0 68:0 69:0 70:0 71:0 72:0 73:0 
1 0:1608 1:26 2:0 3:0 4:0 5:24 6:2 7:0 8:0 9:0 10:0 11:0 12:0 13:0 14:0 15:0 16:0 17:0 18:0 19:0 20:0 21:0 22:0 23:0 24:0 25:0 26:0 27:0 28:0 29:0 30:0 31:0 32:0 33:0 34:0 35:0 36:0 37:0 38:0 39:0 40:26 41:26 42:0 43:0 44:26 45:0 46:0 47:26 48:26 49:0 50:0 51:0 52:0 53:0 54:0 55:26 56:0 57:0 58:0 59:0 60:0 61:0 62:0 63:0 64:0 65:0 66:0 67:0 68:0 69:0 70:0 71:0 72:0 73:0 
0.16748140070716958 0:1623 1:49 2:0 3:0 4:0 5:44 6:5 7:0 8:0 9:0 10:0 11:0 12:0 13:0 14:0 15:0 16:0 17:0 18:0 19:0 20:0 21:0 22:0 23:0 24:0 25:0 26:0 27:0 28:0 29:0 30:0 31:0 32:0 33:0 34:0 35:0 36:0 37:0 38:0 39:0 40:49 41:49 42:0 43:0 44:49 45:0 46:0 47:49 48:49 49:0 50:0 51:0 52:0 53:0 54:0 55:49 56:0 57:0 58:0 59:0 60:0 61:0 62:0 63:0 64:0 65:0 66:0 67:0 68:0 69:0 70:0 71:0 72:0 73:0 
1 0:1624 1:49 2:0 3:0 4:0 5:44 6:5 7:0 8:0 9:0 10:0 11:0 12:0 13:0 14:0 15:0 16:0 17:0 18:0 19:0 20:0 21:0 22:0 23:0 24:0 25:0 26:0 27:0 28:0 29:0 30:0 31:0 32:0 33:0 34:0 35:0 36:0 37:0 38:0 39:0 40:49 41:49 42:0 43:0 44:49 45:0 46:0 47:49 48:49 49:0 50:0 51:0 52:0 53:0 54:0 55:49 56:0 57:0 58:0 59:0 60:0 61:0 62:0 63:0 64:0 65:0 66:0 67:0 68:0 69:0 70:0 71:0 72:0 73:0 
1 0:1625 1:51 2:0 3:0 4:0 5:46 6:5 7:0 8:0 9:0 10:0 11:0 12:0 13:0 14:0 15:0 16:0 17:0 18:0 19:0 20:0 21:0 22:0 23:0 24:0 25:0 26:0 27:0 28:0 29:0 30:0 31:0 32:0 33:0 34:0 35:0 36:0 37:0 38:0 39:0 40:51 41:51 42:0 43:0 44:51 45:0 46:0 47:51 48:51 49:0 50:0 51:0 52:0 53:0 54:0 55:51 56:0 57:0 58:0 59:0 60:0 61:0 62:0 63:0 64:0 65:0 66:0 67:0 68:0 69:0 70:0 71:0 72:0 73:0 
1 0:1632 1:49 2:0 3:0 4:0 5:45 6:4 7:0 8:0 9:0 10:0 11:0 12:0 13:0 14:0 15:0 16:0 17:0 18:0 19:0 20:0 21:0 22:0 23:0 24:0 25:0 26:0 27:0 28:0 29:0 30:0 31:0 32:0 33:0 34:0 35:0 36:0 37:0 38:0 39:0 40:49 41:49 42:0 43:0 44:49 45:0 46:0 47:49 48:49 49:0 50:0 51:0 52:0 53:0 54:0 55:49 56:0 57:0 58:0 59:0 60:0 61:0 62:0 63:0 64:0 65:0 66:0 67:0 68:0 69:0 70:0 71:0 72:0 73:0 
0.31328260087790932 0:1689 1:48 2:0 3:0 4:0 5:46 6:2 7:0 8:0 9:0 10:0 11:0 12:0 13:0 14:0 15:0 16:0 17:0 18:0 19:0 20:0 21:0 22:0 23:0 24:0 25:0 26:0 27:0 28:0 29:0 30:0 31:0 32:0 33:0 34:0 35:0 36:0 37:0 38:0 39:0 40:48 41:48 42:0 43:0 44:48 45:0 46:0 47:48 48:48 49:0 50:0 51:0 52:0 53:0 54:0 55:48 56:0 57:0 58:0 59:0 60:0 61:0 62:0 63:0 64:0 65:0 66:0 67:0 68:0 69:0 70:0 71:0 72:0 73:0 
1 0:1701 1:48 2:0 3:0 4:0 5:44 6:4 7:0 8:0 9:0 10:0 11:0 12:0 13:0 14:0 15:0 16:0 17:0 18:0 19:0 20:0 21:0 22:0 23:0 24:0 25:0 26:0 27:0 28:0 29:0 30:0 31:0 32:0 33:0 34:0 35:0 36:0 37:0 38:0 39:0 40:48 41:48 42:0 43:0 44:48 45:0 46:0 47:48 48:48 49:0 50:0 51:0 52:0 53:0 54:0 55:48 56:0 57:0 58:0 59:0 60:0 61:0 62:0 63:0 64:0 65:0 66:0 67:0 68:0 69:0 70:0 71:0 72:0 73:0 
1 0:1705 1:48 2:0 3:0 4:0 5:45 6:3 7:0 8:0 9:0 10:0 11:0 12:0 13:0 14:0 15:0 16:0 17:0 18:0 19:0 20:0 21:0 22:0 23:0 24:0 25:0 26:0 27:0 28:0 29:0 30:0 31:0 32:0 33:0 34:0 35:0 36:0 37:0 38:0 39:0 40:48 41:48 42:0 43:0 44:48 45:0 46:0 47:48 48:48 49:0 50:0 51:0 52:0 53:0 54:0 55:48 56:0 57:0 58:0 59:0 60:0 61:0 62:0 63:0 64:0 65:0 66:0 67:0 68:0 69:0 70:0 71:0 72:0 73:0 
1 0:1737 1:40 2:0 3:0 4:0 5:37 6:3 7:0 8:0 9:0 10:0 11:0 12:0 13:0 14:0 15:0 16:0 17:0 18:0 19:0 20:0 21:0 22:0 23:0 24:0 25:0 26:0 27:0 28:0 29:0 30:0 31:0 32:0 33:0 34:0 35:0 36:0 37:0 38:0 39:0 40:40 41:40 42:0 43:0 44:40 45:0 46:0 47:40 48:40 49:0 50:0 51:0 52:0 53:0 54:0 55:40 56:0 57:0 58:0 59:0 60:0 61:0 62:0 63:0 64:0 65:0 66:0 67:0 68:0 69:0 70:0 71:0 72:0 73:0 
0.44952531135610113 0:1739 1:38 2:0 3:0 4:0 5:35 6:3 7:0 8:0 9:0 10:0 11:0 12:0 13:0 14:0 15:0 16:0 17:0 18:0 19:0 20:0 21:0 22:0 23:0 24:0 25:0 26:0 27:0 28:0 29:0 30:0 31:0 32:0 33:0 34:0 35:0 36:0 37:0 38:0 39:0 40:38 41:38 42:0 43:0 44:38 45:0 46:0 47:38 48:38 49:0 50:0 51:0 52:0 53:0 54:0 55:38 56:0 57:0 58:0 59:0 60:0 61:0 62:0 63:0 64:0 65:0 66:0 67:0 68:0 69:0 70:0 71:0 72:0 73:0 
1 0:1741 1:37 2:0 3:0 4:0 5:35 6:2 7:0 8:0 9:0 10:0 11:0 12:0 13:0 14:0 15:0 16:0 17:0 18:0 19:0 20:0 21:0 22:0 23:0 24:0 25:0 26:0 27:0 28:0 29:0 30:0 31:0 32:0 33:0 34:0 35:0 36:0 37:0 38:0 39:0 40:37 41:37 42:0 43:0 44:37 45:0 46:0 47:37 48:37 49:0 50:0 51:0 52:0 53:0 54:0 55:37 56:0 57:0 58:0 59:0 60:0 61:0 62:0 63:0 64:0 65:0 66:0 67:0 68:0 69:0 70:0 71:0 72:0 73:0 
1 0:1742 1:37 2:0 3:0 4:0 5:35 6:2 7:0 8:0 9:0 10:0 11:0 12:0 13:0 14:0 15:0 16:0 17:0 18:0 19:0 20:0 21:0 22:0 23:0 24:0 25:0 26:0 27:0 28:0 29:0 30:0 31:0 32:0 33:0 34:0 35:0 36:0 37:0 38:0 39:0 40:37 41:37 42:0 43:0 44:37 45:0 46:0 47:37 48:37 49:0 50:0 51:0 52:0 53:0 54:0 55:37 56:0 57:0 58:0 59:0 60:0 61:0 62:0 63:0 64:0 65:0 66:0 67:0 68:0 69:0 70:0 71:0 72:0 73:0 
1 0:1744 1:38 2:0 3:0 4:0 5:36 6:2 7:0 8:0 9:0 10:0 11:0 12:0 13:0 14:0 15:0 16:0 17:0 18:0 19:0 20:0 21:0 22:0 23:0 24:0 25:0 26:0 27:0 28:0 29:0 30:0 31:0 32:0 33:0 34:0 35:0 36:0 37:0 38:0 39:0 40:38 41:38 42:0 43:0 44:38 45:0 46:0 47:38 48:38 49:0 50:0 51:0 52:0 53:0 54:0 55:38 56:0 57:0 58:0 59:0 60:0 61:0 62:0 63:0 64:0 65:0 66:0 67:0 68:0 69:0 70:0 71:0 72:0 73:0 
1 0:1746 1:37 2:0 3:0 4:0 5:35 6:2 7:0 8:0 9:0 10:0 11:0 12:0 13:0 14:0 15:0 16:0 17:0 18:0 19:0 20:0 21:0 22:0 23:0 24:0 25:0 26:0 27:0 28:0 29:0 30:0 31:0 32:0 33:0 34:0 35:0 36:0 37:0 38:0 39:0 40:37 41:37 42:0 43:0 44:37 45:0 46:0 47:37 48:37 49:0 50:0 51:0 52:0 53:0 54:0 55:37 56:0 57:0 58:0 59:0 60:0 61:0 62:0 63:0 64:0 65:0 66:0 67:0 68:0 69:0 70:0 71:0 72:0 73:0 
1 0:1750 1:37 2:0 3:0 4:0 5:36 6:1 7:0 8:0 9:0 10:0 11:0 12:0 13:0 14:0 15:0 16:0 17:0 18:0 19:0 20:0 21:0 22:0 23:0 24:0 25:0 26:0 27:0 28:0 29:0 30:0 31:0 32:0 33:0 34:0 35:0 36:0 37:0 38:0 39:0 40:37 41:37 42:0 43:0 44:37 45:0 46:0 47:37 48:37 49:0 50:0 51:0 52:0 53:0 54:0 55:37 56:0 57:0 58:0 59:0 60:0 61:0 62:0 63:0 64:0 65:0 66:0 67:0 68:0 69:0 70:0 71:0 72:0 73:0 
1 0:1752 1:36 2:0 3:0 4:0 5:35 6:1 7:0 8:0 9:0 10:0 11:0 12:0 13:0 14:0 15:0 16:0 17:0 18:0 19:0 20:0 21:0 22:0 23:0 24:0 25:0 26:0 27:0 28:0 29:0 30:0 31:0 32:0 33:0 34:0 35:0 36:0 37:0 38:0 39:0 40:36 41:36 42:0 43:0 44:36 45:0 46:0 47:36 48:36 49:0 50:0 51:0 52:0 53:0 54:0 55:36 56:0 57:0 58:0 59:0 60:0 61:0 62:0 63:0 64:0 65:0 66:0 67:0 68:0 69:0 70:0 71:0 72:0 73:0 
1 0:1756 1:0 2:0 3:34 4:0 5:0 6:0 7:0 8:0 9:0 10:0 11:0 12:0 13:0 14:0 15:34 16:0 17:0 18:0 19:0 20:34 21:0 22:0 23:0 24:34 25:0 26:0 27:0 28:0 29:0 30:0 31:0 32:0 33:0 34:0 35:0 36:34 37:0 38:0 39:34 40:0 41:0 42:0 43:0 44:0 45:34 46:34 47:0 48:0 49:0 50:0 51:0 52:0 53:34 54:0 55:34 56:0 57:0 58:34 59:0 60:0 61:0 62:0 63:0 64:0 65:0 66:0 67:0 68:0 69:0 70:0 71:0 72:0 73:0 
1 0:1760 1:0 2:0 3:34 4:0 5:0 6:0 7:0 8:0 9:0 10:0 11:0 12:0 13:0 14:0 15:34 16:0 17:0 18:0 19:0 20:34 21:0 22:0 23:0 24:34 25:0 26:0 27:0 28:0 29:0 30:0 31:0 32:0 33:0 34:0 35:0 36:34 37:0 38:0 39:34 40:0 41:0 42:0 43:0 44:0 45:34 46:34 47:0 48:0 49:0 50:0 51:0 52:0 53:34 54:0 55:34 56:0 57:0 58:34 59:0 60:0 61:0 62:0 63:0 64:0 65:0 66:0 67:0 68:0 69:0 70:0 71:0 72:0 73:0 
1 0:1762 1:0 2:0 3:35 4:0 5:0 6:0 7:0 8:0 9:0 10:0 11:0 12:0 13:0 14:0 15:35 16:0 17:0 18:0 19:0 20:35 21:0 22:0 23:0 24:35 25:0 26:0 27:0 28:0 29:0 30:0 31:0 32:0 33:0 34:0 35:0 36:35 37:0 38:0 39:35 40:0 41:0 42:0 43:0 44:0 45:35 46:35 47:0 48:0 49:0 50:0 51:0 52:0 53:35 54:0 55:35 56:0 57:0 58:35 59:0 60:0 61:0 62:0 63:0 64:0 65:0 66:0 67:0 68:0 69:0 70:0 71:0 72:0 73:0 
1 0:1764 1:0 2:0 3:34 4:0 5:0 6:0 7:0 8:0 9:0 10:0 11:0 12:0 13:0 14:0 15:34 16:0 17:0 18:0 19:0 20:34 21:0 22:0 23:0 24:34 25:0 26:0 27:0 28:0 29:0 30:0 31:0 32:0 33:0 34:0 35:0 36:34 37:0 38:0 39:34 40:0 41:0 42:0 43:0 44:0 45:34 46:34 47:0 48:0 49:0 50:0 51:0 52:0 53:34 54:0 55:34 56:0 57:0 58:34 59:0 60:0 61:0 62:0 63:0 64:0 65:0 66:0 67:0 68:0 69:0 70:0 71:0 72:0 73:0 
1 0:1770 1:0 2:0 3:35 4:0 5:0 6:0 7:0 8:0 9:0 10:0 11:0 12:0 13:0 14:0 15:35 16:0 17:0 18:0 19:0 20:35 21:0 22:0 23:0 24:35 25:0 26:0 27:0 28:0 29:0 30:0 31:0 32:0 33:0 34:0 35:0 36:35 37:0 38:0 39:35 40:0 41:0 42:0 43:0 44:0 45:35 46:35 47:0 48:0 49:0 50:0 51:0 52:0 53:35 54:0 55:35 56:0 57:0 58:35 59:0 60:0 61:0 62:0 63:0 64:0 65:0 66:0 67:0 68:0 69:0 70:0 71:0 72:0 73:0 
1 0:1771 1:0 2:0 3:34 4:0 5:0 6:0 7:0 8:0 9:0 10:0 11:0 12:0 13:0 14:0 15:34 16:0 17:0 18:0 19:0 20:34 21:0 22:0 23:0 24:34 25:0 26:0 27:0 28:0 29:0 30:0 31:0 32:0 33:0 34:0 35:0 36:34 37:0 38:0 39:34 40:0 41:0 42:0 43:0 44:0 45:34 46:34 47:0 48:0 49:0 50:0 51:0 52:0 53:34 54:0 55:34 56:0 57:0 58:34 59:0 60:0 61:0 62:0 63:0 64:0 65:0 66:0 67:0 68:0 69:0 70:0 71:0 72:0 73:0 
1 0:1772 1:0 2:0 3:34 4:0 5:0 6:0 7:0 8:0 9:0 10:0 11:0 12:0 13:0 14:0 15:34 16:0 17:0 18:0 19:0 20:34 21:0 22:0 23:0 24:34 25:0 26:0 27:0 28:0 29:0 30:0 31:0 32:0 33:0 34:0 35:0 36:34 37:0 38:0 39:34 40:0 41:0 42:0 43:0 44:0 45:34 46:34 47:0 48:0 49:0 50:0 51:0 52:0 53:34 54:0 55:34 56:0 57:0 58:34 59:0 60:0 61:0 62:0 63:0 64:0 65:0 66:0 67:0 68:0 69:0 70:0 71:0 72:0 73:0 
1 0:1773 1:0 2:0 3:36 4:0 5:0 6:0 7:0 8:0 9:0 10:0 11:0 12:0 13:0 14:0 15:36 16:0 17:0 18:0 19:0 20:36 21:0 22:0 23:0 24:36 25:0 26:0 27:0 28:0 29:0 30:0 31:0 32:0 33:0 34:0 35:0 36:36 37:0 38:0 39:36 40:0 41:0 42:0 43:0 44:0 45:36 46:36 47:0 48:0 49:0 50:0 51:0 52:0 53:36 54:0 55:36 56:0 57:0 58:36 59:0 60:0 61:0 62:0 63:0 64:0 65:0 66:0 67:0 68:0 69:0 70:0 71:0 72:0 73:0 
0.4838081211571616 0:1775 1:0 2:0 3:34 4:0 5:0 6:0 7:0 8:0 9:0 10:0 11:0 12:0 13:0 14:0 15:34 16:0 17:0 18:0 19:0 20:34 21:0 22:0 23:0 24:34 25:0 26:0 27:0 28:0 29:0 30:0 31:0 32:0 33:0 34:0 35:0 36:34 37:0 38:0 39:34 40:0 41:0 42:0 43:0 44:0 45:34 46:34 47:0 48:0 49:0 50:0 51:0 52:0 53:34 54:0 55:34 56:0 57:0 58:34 59:0 60:0 61:0 62:0 63:0 64:0 65:0 66:0 67:0 68:0 69:0 70:0 71:0 72:0 73:0 
1 0:1861 1:0 2:0 3:36 4:0 5:0 6:0 7:0 8:0 9:0 10:0 11:0 12:0 13:0 14:0 15:36 16:0 17:0 18:0 19:0 20:36 21:0 22:0 23:0 24:36 25:0 26:0 27:0 28:0 29:0 30:0 31:0 32:0 33:0 34:0 35:0 36:36 37:0 38:0 39:36 40:0 41:0 42:0 43:0 44:0 45:36 46:36 47:0 48:0 49:0 50:0 51:0 52:0 53:36 54:0 55:36 56:0 57:0 58:36 59:0 60:0 61:0 62:0 63:0 64:0 65:0 66:0 67:0 68:0 69:0 70:0 71:0 72:0 73:0 
1 0:1865 1:0 2:0 3:36 4:0 5:0 6:0 7:0 8:0 9:0 10:0 11:0 12:0 13:0 14:0 15:36 16:0 17:0 18:0 19:0 20:36 21:0 22:0 23:0 24:36 25:0 26:0 27:0 28:0 29:0 30:0 31:0 32:0 33:0 34:0 35:0 36:36 37:0 38:0 39:36 40:0 41:0 42:0 43:0 44:0 45:36 46:36 47:0 48:0 49:0 50:0 51:0 52:0 53:36 54:0 55:36 56:0 57:0 58:36 59:0 60:0 61:0 62:0 63:0 64:0 65:0 66:0 67:0 68:0 69:0 70:0 71:0 72:0 73:0 
0.35570111303770086 0:1867 1:0 2:0 3:34 4:0 5:0 6:0 7:0 8:0 9:0 10:0 11:0 12:0 13:0 14:0 15:34 16:0 17:0 18:0 19:0 20:34 21:0 22:0 23:0 24:34 25:0 26:0 27:0 28:0 29:0 30:0 31:0 32:0 33:0 34:0 35:0 36:34 37:0 38:0 39:34 40:0 41:0 42:0 43:0 44:0 45:34 46:34 47:0 48:0 49:0 50:0 51:0 52:0 53:34 54:0 55:34 56:0 57:0 58:34 59:0 60:0 61:0 62:0 63:0 64:0 65:0 66:0 67:0 68:0 69:0 70:0 71:0 72:0 73:0 
1 0:1872 1:0 2:0 3:34 4:0 5:0 6:0 7:0 8:0 9:0 10:0 11:0 12:0 13:0 14:0 15:34 16:0 17:0 18:0 19:0 20:34 21:0 22:0 23:0 24:34 25:0 26:0 27:0 28:0 29:0 30:0 31:0 32:0 33:0 34:0 35:0 36:34 37:0 38:0 39:34 40:0 41:0 42:0 43:0 44:0 45:34 46:34 47:0 48:0 49:0 50:0 51:0 52:0 53:34 54:0 55:34 56:0 57:0 58:34 59:0 60:0 61:0 62:0 63:0 64:0 65:0 66:0 67:0 68:0 69:0 70:0 71:0 72:0 73:0 
1 0:1873 1:0 2:0 3:36 4:0 5:0 6:0 7:0 8:0 9:0 10:0 11:0 12:0 13:0 14:0 15:36 16:0 17:0 18:0 19:0 20:36 21:0 22:0 23:0 24:36 25:0 26:0 27:0 28:0 29:0 30:0 31:0 32:0 33:0 34:0 35:0 36:36 37:0 38:0 39:36 40:0 41:0 42:0 43:0 44:0 45:36 46:36 47:0 48:0 49:0 50:0 51:0 52:0 53:36 54:0 55:36 56:0 57:0 58:36 59:0 60:0 61:0 62:0 63:0 64:0 65:0 66:0 67:0 68:0 69:0 70:0 71:0 72:0 73:0 
1 0:1874 1:0 2:0 3:35 4:0 5:0 6:0 7:0 8:0 9:0 10:0 11:0 12:0 13:0 14:0 15:35 16:0 17:0 18:0 19:0 20:35 21:0 22:0 23:0 24:35 25:0 26:0 27:0 28:0 29:0 30:0 31:0 32:0 33:0 34:0 35:0 36:35 37:0 38:0 39:35 40:0 41:0 42:0 43:0 44:0 45:35 46:35 47:0 48:0 49:0 50:0 51:0 52:0 53:35 54:0 55:35 56:0 57:0 58:35 59:0 60:0 61:0 62:0 63:0 64:0 65:0 66:0 67:0 68:0 69:0 70:0 71:0 72:0 73:0 
0.38302464824166865 0:1879 1:0 2:0 3:34 4:0 5:0 6:0 7:0 8:0 9:0 10:0 11:0 12:0 13:0 14:0 15:34 16:0 17:0 18:0 19:0 20:34 21:0 22:0 23:0 24:34 25:0 26:0 27:0 28:0 29:0 30:0 31:0 32:0 33:0 34:0 35:0 36:34 37:0 38:0 39:34 40:0 41:0 42:0 43:0 44:0 45:34 46:34 47:0 48:0 49:0 50:0 51:0 52:0 53:34 54:0 55:34 56:0 57:0 58:34 59:0 60:0 61:0 62:0 63:0 64:0 65:0 66:0 67:0 68:0 69:0 70:0 71:0 72:0 73:0 
0.94355846958300826 0:1968 1:0 2:0 3:34 4:0 5:0 6:0 7:0 8:0 9:0 10:0 11:0 12:0 13:0 14:0 15:34 16:0 17:0 18:0 19:0 20:34 21:0 22:0 23:0 24:34 25:0 26:0 27:0 28:0 29:0 30:0 31:0 32:0 33:0 34:0 35:0 36:34 37:0 38:0 39:34 40:0 41:0 42:0 43:0 44:0 45:34 46:34 47:0 48:0 49:0 50:0 51:0 52:0 53:34 54:0 55:34 56:0 57:0 58:34 59:0 60:0 61:0 62:0 63:0 64:0 65:0 66:0 67:0 68:0 69:0 70:0 71:0 72:0 73:0 
1 0:1971 1:0 2:0 3:34 4:0 5:0 6:0 7:0 8:0 9:0 10:0 11:0 12:0 13:0 14:0 15:34 16:0 17:0 18:0 19:0 20:34 21:0 22:0 23:0 24:34 25:0 26:0 27:0 28:0 29:0 30:0 31:0 32:0 33:0 34:0 35:0 36:34 37:0 38:0 39:34 40:0 41:0 42:0 43:0 44:0 45:34 46:34 47:0 48:0 49:0 50:0 51:0 52:0 53:34 54:0 55:34 56:0 57:0 58:34 59:0 60:0 61:0 62:0 63:0 64:0 65:0 66:0 67:0 68:0 69:0 70:0 71:0 72:0 73:0 
1 0:1972 1:0 2:0 3:34 4:0 5:0 6:0 7:0 8:0 9:0 10:0 11:0 12:0 13:0 14:0 15:34 16:0 17:0 18:0 19:0 20:34 21:0 22:0 23:0 24:34 25:0 26:0 27:0 28:0 29:0 30:0 31:0 32:0 33:0 34:0 35:0 36:34 37:0 38:0 39:34 40:0 41:0 42:0 43:0 44:0 45:34 46:34 47:0 48:0 49:0 50:0 51:0 52:0 53:34 54:0 55:34 56:0 57:0 58:34 59:0 60:0 61:0 62:0 63:0 64:0 65:0 66:0 67:0 68:0 69:0 70:0 71:0 72:0 73:0 
1 0:1973 1:0 2:0 3:36 4:0 5:0 6:0 7:0 8:0 9:0 10:0 11:0 12:0 13:0 14:0 15:36 16:0 17:0 18:0 19:0 20:36 21:0 22:0 23:0 24:36 25:0 26:0 27:0 28:0 29:0 30:0 31:0 32:0 33:0 34:0 35:0 36:36 37:0 38:0 39:36 40:0 41:0 42:0 43:0 44:0 45:36 46:36 47:0 48:0 49:0 50:0 51:0 52:0 53:36 54:0 55:36 56:0 57:0 58:36 59:0 60:0 61:0 62:0 63:0 64:0 65:0 66:0 67:0 68:0 69:0 70:0 71:0 72:0 73:0 
1 0:1974 1:0 2:0 3:35 4:0 5:0 6:0 7:0 8:0 9:0 10:0 11:0 12:0 13:0 14:0 15:35 16:0 17:0 18:0 19:0 20:35 21:0 22:0 23:0 24:35 25:0 26:0 27:0 28:0 29:0 30:0 31:0 32:0 33:0 34:0 35:0 36:35 37:0 38:0 39:35 40:0 41:0 42:0 43:0 44:0 45:35 46:35 47:0 48:0 49:0 50:0 51:0 52:0 53:35 54:0 55:35 56:0 57:0 58:35 59:0 60:0 61:0 62:0 63:0 64:0 65:0 66:0 67:0 68:0 69:0 70:0 71:0 72:0 73:0 
1 0:1976 1:0 2:0 3:34 4:0 5:0 6:0 7:0 8:0 9:0 10:0 11:0 12:0 13:0 14:0 15:34 16:0 17:0 18:0 19:0 20:34 21:0 22:0 23:0 24:34 25:0 26:0 27:0 28:0 29:0 30:0 31:0 32:0 33:0 34:0 35:0 36:34 37:0 38:0 39:34 40:0 41:0 42:0 43:0 44:0 45:34 46:34 47:0 48:0 49:0 50:0 51:0 52:0 53:34 54:0 55:34 56:0 57:0 58:34 59:0 60:0 61:0 62:0 63:0 64:0 65:0 66:0 67:0 68:0 69:0 70:0 71:0 72:0 73:0 
1 0:1977 1:0 2:0 3:36 4:0 5:0 6:0 7:0 8:0 9:0 10:0 11:0 12:0 13:0 14:0 15:36 16:0 17:0 18:0 19:0 20:36 21:0 22:0 23:0 24:36 25:0 26:0 27:0 28:0 29:0 30:0 31:0 32:0 33:0 34:0 35:0 36:36 37:0 38:0 39:36 40:0 41:0 42:0 43:0 44:0 45:36 46:36 47:0 48:0 49:0 50:0 51:0 52:0 53:36 54:0 55:36 56:0 57:0 58:36 59:0 60:0 61:0 62:0 63:0 64:0 65:0 66:0 67:0 68:0 69:0 70:0 71:0 72:0 73:0 
1 0:1979 1:0 2:0 3:34 4:0 5:0 6:0 7:0 8:0 9:0 10:0 11:0 12:0 13:0 14:0 15:34 16:0 17:0 18:0 19:0 20:34 21:0 22:0 23:0 24:34 25:0 26:0 27:0 28:0 29:0 30:0 31:0 32:0 33:0 34:0 35:0 36:34 37:0 38:0 39:34 40:0 41:0 42:0 43:0 44:0 45:34 46:34 47:0 48:0 49:0 50:0 51:0 52:0 53:34 54:0 55:34 56:0 57:0 58:34 59:0 60:0 61:0 62:0 63:0 64:0 65:0 66:0 67:0 68:0 69:0 70:0 71:0 72:0 73:0 
1 0:1983 1:0 2:0 3:43 4:0 5:0 6:0 7:0 8:0 9:0 10:0 11:0 12:0 13:0 14:0 15:43 16:0 17:0 18:0 19:0 20:43 21:0 22:0 23:0 24:43 25:0 26:0 27:0 28:0 29:0 30:0 31:0 32:0 33:0 34:0 35:0 36:43 37:0 38:0 39:0 40:0 41:0 42:0 43:0 44:43 45:43 46:43 47:43 48:0 49:0 50:0 51:0 52:43 53:43 54:43 55:43 56:0 57:0 58:43 59:0 60:0 61:43 62:43 63:43 64:0 65:43 66:0 67:0 68:0 69:0 70:0 71:0 72:0 73:0 
1 0:1987 1:0 2:0 3:43 4:0 5:0 6:0 7:0 8:0 9:0 10:0 11:0 12:0 13:0 14:0 15:42 16:1 17:0 18:0 19:0 20:43 21:0 22:0 23:0 24:43 25:0 26:0 27:0 28:0 29:0 30:0 31:0 32:0 33:0 34:0 35:0 36:43 37:0 38:0 39:0 40:0 41:0 42:0 43:0 44:43 45:43 46:43 47:43 48:0 49:0 50:0 51:0 52:43 53:43 54:43 55:43 56:0 57:0 58:43 59:0 60:0 61:43 62:43 63:43 64:0 65:43 66:0 67:0 68:0 69:0 70:0 71:0 72:0 73:0 
1 0:1988 1:0 2:0 3:43 4:0 5:0 6:0 7:0 8:0 9:0 10:0 11:0 12:0 13:0 14:0 15:42 16:1 17:0 18:0 19:0 20:43 21:0 22:0 23:0 24:43 25:0 26:0 27:0 28:0 29:0 30:0 31:0 32:0 33:0 34:0 35:0 36:43 37:0 38:0 39:0 40:0 41:0 42:0 43:0 44:43 45:43 46:43 47:43 48:0 49:0 50:0 51:0 52:43 53:43 54:43 55:43 56:0 57:0 58:43 59:0 60:0 61:43 62:43 63:43 64:0 65:43 66:0 67:0 68:0 69:0 70:0 71:0 72:0 73:0 
1 0:1989 1:0 2:0 3:43 4:0 5:0 6:0 7:0 8:0 9:0 10:0 11:0 12:0 13:0 14:0 15:42 16:1 17:0 18:0 19:0 20:43 21:0 22:0 23:0 24:43 25:0 26:0 27:0 28:0 29:0 30:0 31:0 32:0 33:0 34:0 35:0 36:43 37:0 38:0 39:0 40:0 41:0 42:0 43:0 44:43 45:43 46:43 47:43 48:0 49:0 50:0 51:0 52:43 53:43 54:43 55:43 56:0 57:0 58:43 59:0 60:0 61:43 62:43 63:43 64:0 65:43 66:0 67:0 68:0 69:0 70:0 71:0 72:0 73:0 
1 0:1990 1:0 2:0 3:45 4:0 5:0 6:0 7:0 8:0 9:0 10:0 11:0 12:0 13:0 14:0 15:44 16:1 17:0 18:0 19:0 20:45 21:0 22:0 23:0 24:45 25:0 26:0 27:0 28:0 29:0 30:0 31:0 32:0 33:0 34:0 35:0 36:45 37:0 38:0 39:0 40:0 41:0 42:0 43:0 44:45 45:45 46:45 47:45 48:0 49:0 50:0 51:0 52:45 53:45 54:45 55:45 56:0 57:0 58:45 59:0 60:0 61:45 62:45 63:45 64:0 65:45 66:0 67:0 68:0 69:0 70:0 71:0 72:0 73:0 
1 0:1992 1:0 2:0 3:43 4:0 5:0 6:0 7:0 8:0 9:0 10:0 11:0 12:0 13:0 14:0 15:42 16:1 17:0 18:0 19:0 20:43 21:0 22:0 23:0 24:43 25:0 26:0 27:0 28:0 29:0 30:0 31:0 32:0 33:0 34:0 35:0 36:43 37:0 38:0 39:0 40:0 41:0 42:0 43:0 44:43 45:43 46:43 47:43 48:0 49:0 50:0 51:0 52:43 53:43 54:43 55:43 56:0 57:0 58:43 59:0 60:0 61:43 62:43 63:43 64:0 65:43 66:0 67:0 68:0 69:0 70:0 71:0 72:0 73:0 
0.7570034192393198 0:1999 1:0 2:0 3:43 4:0 5:0 6:0 7:0 8:0 9:0 10:0 11:0 12:0 13:0 14:0 15:42 16:1 17:0 18:0 19:0 20:43 21:0 22:0 23:0 24:43 25:0 26:0 27:0 28:0 29:0 30:0 31:0 32:0 33:0 34:0 35:0 36:43 37:0 38:0 39:0 40:0 41:0 42:0 43:0 44:43 45:43 46:43 47:43 48:0 49:0 50:0 51:0 52:43 53:43 54:43 55:43 56:0 57:0 58:43 59:0 60:0 61:43 62:43 63:43 64:0 65:43 66:0 67:0 68:0 69:0 70:0 71:0 72:0 73:0 
1 0:2000 1:0 2:0 3:45 4:0 5:0 6:0 7:0 8:0 9:0 10:0 11:0 12:0 13:0 14:0 15:44 16:1 17:0 18:0 19:0 20:45 21:0 22:0 23:0 24:45 25:0 26:0 27:0 28:0 29:0 30:0 31:0 32:0 33:0 34:0 35:0 36:45 37:0 38:0 39:0 40:0 41:0 42:0 43:0 44:45 45:45 46:45 47:45 48:0 49:0 50:0 51:0 52:45 53:45 54:45 55:45 56:0 57:0 58:45 59:0 60:0 61:45 62:45 63:45 64:0 65:45 66:0 67:0 68:0 69:0 70:0 71:0 72:0 73:0 
0.39701883701394702 0:2084 1:0 2:0 3:37 4:0 5:0 6:0 7:0 8:0 9:0 10:0 11:0 12:0 13:0 14:0 15:37 16:0 17:0 18:0 19:0 20:37 21:0 22:0 23:0 24:37 25:0 26:0 27:0 28:0 29:0 30:0 31:0 32:0 33:0 34:0 35:0 36:37 37:0 38:0 39:0 40:0 41:0 42:0 43:0 44:37 45:37 46:37 47:37 48:0 49:0 50:0 51:0 52:37 53:37 54:37 55:37 56:0 57:0 58:37 59:0 60:0 61:37 62:37 63:37 64:0 65:37 66:0 67:0 68:0 69:0 70:0 71:0 72:0 73:0 
1 0:2087 1:0 2:0 3:37 4:0 5:0 6:0 7:0 8:0 9:0 10:0 11:0 12:0 13:0 14:0 15:37 16:0 17:0 18:0 19:0 20:37 21:0 22:0 23:0 24:37 25:0 26:0 27:0 28:0 29:0 30:0 31:0 32:0 33:0 34:0 35:0 36:37 37:0 38:0 39:0 40:0 41:0 42:0 43:0 44:37 45:37 46:37 47:37 48:0 49:0 50:0 51:0 52:37 53:37 54:37 55:37 56:0 57:0 58:37 59:0 60:0 61:37 62:37 63:37 64:0 65:37 66:0 67:0 68:0 69:0 70:0 71:0 72:0 73:0 
1 0:2088 1:0 2:0 3:37 4:0 5:0 6:0 7:0 8:0 9:0 10:0 11:0 12:0 13:0 14:0 15:37 16:0 17:0 18:0 19:0 20:37 21:0 22:0 23:0 24:37 25:0 26:0 27:0 28:0 29:0 30:0 31:0 32:0 33:0 34:0 35:0 36:37 37:0 38:0 39:0 40:0 41:0 42:0 43:0 44:37 45:37 46:37 47:37 48:0 49:0 50:0 51:0 52:37 53:37 54:37 55:37 56:0 57:0 58:37 59:0 60:0 61:37 62:37 63:37 64:0 65:37 66:0 67:0 68:0 69:0 70:0 71:0 72:0 73:0 
1 0:2089 1:0 2:0 3:37 4:0 5:0 6:0 7:0 8:0 9:0 10:0 11:0 12:0 13:0 14:0 15:37 16:0 17:0 18:0 19:0 20:37 21:0 22:0 23:0 24:37 25:0 26:0 27:0 28:0 29:0 30:0 31:0 32:0 33:0 34:0 35:0 36:37 37:0 38:0 39:0 40:0 41:0 42:0 43:0 44:37 45:37 46:37 47:37 48:0 49:0 50:0 51:0 52:37 53:37 54:37 55:37 56:0 57:0 58:37 59:0 60:0 61:37 62:37 63:37 64:0 65:37 66:0 67:0 68:0 69:0 70:0 71:0 72:0 73:0 
0.33130194320349193 0:2094 1:0 2:0 3:45 4:0 5:0 6:0 7:0 8:0 9:0 10:0 11:0 12:0 13:0 14:0 15:45 16:0 17:0 18:0 19:0 20:45 21:0 22:0 23:0 24:45 25:0 26:0 27:0 28:0 29:0 30:0 31:0 32:0 33:0 34:0 35:0 36:45 37:0 38:0 39:0 40:0 41:0 42:0 43:0 44:45 45:45 46:45 47:45 48:0 49:0 50:0 51:0 52:45 53:45 54:45 55:45 56:0 57:0 58:45 59:0 60:0 61:45 62:45 63:45 64:0 65:45 66:0 67:0 68:0 69:0 70:0 71:0 72:0 73:0 
1 0:2114 1:0 2:0 3:45 4:0 5:0 6:0 7:0 8:0 9:0 10:0 11:0 12:0 13:0 14:0 15:45 16:0 17:0 18:0 19:0 20:45 21:0 22:0 23:0 24:45 25:0 26:0 27:0 28:0 29:0 30:0 31:0 32:0 33:0 34:0 35:0 36:45 37:0 38:0 39:0 40:0 41:0 42:0 43:0 44:45 45:45 46:45 47:45 48:0 49:0 50:0 51:0 52:45 53:45 54:45 55:45 56:0 57:0 58:45 59:0 60:0 61:45 62:45 63:45 64:0 65:45 66:0 67:0 68:0 69:0 70:0 71:0 72:0 73:0 
1 0:2119 1:0 2:0 3:45 4:0 5:0 6:0 7:0 8:0 9:0 10:0 11:0 12:0 13:0 14:0 15:45 16:0 17:0 18:0 19:0 20:45 21:0 22:0 23:0 24:45 25:0 26:0 27:0 28:0 29:0 30:0 31:0 32:0 33:0 34:0 35:0 36:45 37:0 38:0 39:0 40:0 41:0 42:0 43:0 44:45 45:45 46:45 47:45 48:0 49:0 50:0 51:0 52:45 53:45 54:45 55:45 56:0 57:0 58:45 59:0 60:0 61:45 62:45 63:45 64:0 65:45 66:0 67:0 68:0 69:0 70:0 71:0 72:0 73:0 
1 0:2129 1:0 2:0 3:45 4:0 5:0 6:0 7:0 8:0 9:0 10:0 11:0 12:0 13:0 14:0 15:45 16:0 17:0 18:0 19:0 20:45 21:0 22:0 23:0 24:45 25:0 26:0 27:0 28:0 29:0 30:0 31:0 32:0 33:0 34:0 35:0 36:45 37:0 38:0 39:0 40:0 41:0 42:0 43:0 44:45 45:45 46:45 47:45 48:0 49:0 50:0 51:0 52:45 53:45 54:45 55:45 56:0 57:0 58:45 59:0 60:0 61:45 62:45 63:45 64:0 65:45 66:0 67:0 68:0 69:0 70:0 71:0 72:0 73:0 
1 0:2139 1:0 2:0 3:45 4:0 5:0 6:0 7:0 8:0 9:0 10:0 11:0 12:0 13:0 14:0 15:45 16:0 17:0 18:0 19:0 20:45 21:0 22:0 23:0 24:45 25:0 26:0 27:0 28:0 29:0 30:0 31:0 32:0 33:0 34:0 35:0 36:45 37:0 38:0 39:0 40:0 41:0 42:0 43:0 44:45 45:45 46:45 47:45 48:0 49:0 50:0 51:0 52:45 53:45 54:45 55:45 56:0 57:0 58:45 59:0 60:0 61:45 62:45 63:45 64:0 65:45 66:0 67:0 68:0 69:0 70:0 71:0 72:0 73:0 
1 0:2144 1:0 2:0 3:45 4:0 5:0 6:0 7:0 8:0 9:0 10:0 11:0 12:0 13:0 14:0 15:45 16:0 17:0 18:0 19:0 20:45 21:0 22:0 23:0 24:45 25:0 26:0 27:0 28:0 29:0 30:0 31:0 32:0 33:0 34:0 35:0 36:45 37:0 38:0 39:0 40:0 41:0 42:0 43:0 44:45 45:45 46:45 47:45 48:0 49:0 50:0 51:0 52:45 53:45 54:45 55:45 56:0 57:0 58:45 59:0 60:0 61:45 62:45 63:45 64:0 65:45 66:0 67:0 68:0 69:0 70:0 71:0 72:0 73:0 
0.45992417152257148 0:2164 1:0 2:0 3:45 4:0 5:0 6:0 7:0 8:0 9:0 10:0 11:0 12:0 13:0 14:0 15:45 16:0 17:0 18:0 19:0 20:45 21:0 22:0 23:0 24:45 25:0 26:0 27:0 28:0 29:0 30:0 31:0 32:0 33:0 34:0 35:0 36:45 37:0 38:0 39:0 40:0 41:0 42:0 43:0 44:45 45:45 46:45 47:45 48:0 49:0 50:0 51:0 52:45 53:45 54:45 55:45 56:0 57:0 58:45 59:0 60:0 61:45 62:45 63:45 64:0 65:45 66:0 67:0 68:0 69:0 70:0 71:0 72:0 73:0 
0.44180754507193676 0:2234 1:0 2:0 3:45 4:0 5:0 6:0 7:0 8:0 9:0 10:0 11:0 12:0 13:0 14:0 15:45 16:0 17:0 18:0 19:0 20:45 21:0 22:0 23:0 24:45 25:0 26:0 27:0 28:0 29:0 30:0 31:0 32:0 33:0 34:0 35:0 36:45 37:0 38:0 39:0 40:0 41:0 42:0 43:0 44:45 45:45 46:45 47:45 48:0 49:0 50:0 51:0 52:45 53:45 54:45 55:45 56:0 57:0 58:45 59:0 60:0 61:45 62:45 63:45 64:0 65:45 66:0 67:0 68:0 69:0 70:0 71:0 72:0 73:0 
1 0:2240 1:0 2:0 3:44 4:0 5:0 6:0 7:0 8:0 9:0 10:0 11:0 12:0 13:0 14:0 15:44 16:0 17:0 18:0 19:0 20:44 21:0 22:0 23:0 24:44 25:0 26:0 27:0 28:0 29:0 30:0 31:0 32:0 33:0 34:0 35:0 36:44 37:0 38:0 39:0 40:0 41:0 42:0 43:0 44:44 45:44 46:44 47:44 48:0 49:0 50:0 51:0 52:44 53:44 54:44 55:44 56:0 57:0 58:44 59:0 60:0 61:44 62:44 63:44 64:0 65:44 66:0 67:0 68:0 69:0 70:0 71:0 72:0 73:0 
1 0:2241 1:0 2:0 3:43 4:0 5:0 6:0 7:0 8:0 9:0 10:0 11:0 12:0 13:0 14:0 15:43 16:0 17:0 18:0 19:0 20:43 21:0 22:0 23:0 24:43 25:0 26:0 27:0 28:0 29:0 30:0 31:0 32:0 33:0 34:0 35:0 36:43 37:0 38:0 39:0 40:0 41:0 42:0 43:0 44:43 45:43 46:43 47:43 48:0 49:0 50:0 51:0 52:43 53:43 54:43 55:43 56:0 57:0 58:43 59:0 60:0 61:43 62:43 63:43 64:0 65:43 66:0 67:0 68:0 69:0 70:0 71:0 72:0 73:0 
1 0:2245 1:0 2:0 3:44 4:0 5:0 6:0 7:0 8:0 9:0 10:0 11:0 12:0 13:0 14:0 15:44 16:0 17:0 18:0 19:0 20:44 21:0 22:0 23:0 24:44 25:0 26:0 27:0 28:0 29:0 30:0 31:0 32:0 33:0 34:0 35:0 36:44 37:0 38:0 39:0 40:0 41:0 42:0 43:0 44:44 45:44 46:44 47:44 48:0 49:0 50:0 51:0 52:44 53:44 54:44 55:44 56:0 57:0 58:44 59:0 60:0 61:44 62:44 63:44 64:0 65:44 66:0 67:0 68:0 69:0 70:0 71:0 72:0 73:0 
1 0:2246 1:0 2:0 3:43 4:0 5:0 6:0 7:0 8:0 9:0 10:0 11:0 12:0 13:0 14:0 15:43 16:0 17:0 18:0 19:0 20:43 21:0 22:0 23:0 24:43 25:0 26:0 27:0 28:0 29:0 30:0 31:0 32:0 33:0 34:0 35:0 36:43 37:0 38:0 39:0 40:0 41:0 42:0 43:0 44:43 45:43 46:43 47:43 48:0 49:0 50:0 51:0 52:43 53:43 54:43 55:43 56:0 57:0 58:43 59:0 60:0 61:43 62:43 63:43 64:0 65:43 66:0 67:0 68:0 69:0 70:0 71:0 72:0 73:0 
1 0:2248 1:0 2:0 3:43 4:0 5:0 6:0 7:0 8:0 9:0 10:0 11:0 12:0 13:0 14:0 15:43 16:0 17:0 18:0 19:0 20:43 21:0 22:0 23:0 24:43 25:0 26:0 27:0 28:0 29:0 30:0 31:0 32:0 33:0 34:0 35:0 36:43 37:0 38:0 39:0 40:0 41:0 42:0 43:0 44:43 45:43 46:43 47:43 48:0 49:0 50:0 51:0 52:43 53:43 54:43 55:43 56:0 57:0 58:43 59:0 60:0 61:43 62:43 63:43 64:0 65:43 66:0 67:0 68:0 69:0 70:0 71:0 72:0 73:0 
1 0:2253 1:0 2:0 3:43 4:0 5:0 6:0 7:0 8:0 9:0 10:0 11:0 12:0 13:0 14:0 15:43 16:0 17:0 18:0 19:0 20:43 21:0 22:0 23:0 24:43 25:0 26:0 27:0 28:0 29:0 30:0 31:0 32:0 33:0 34:0 35:0 36:43 37:0 38:0 39:0 40:0 41:0 42:0 43:0 44:43 45:43 46:43 47:43 48:0 49:0 50:0 51:0 52:43 53:43 54:43 55:43 56:0 57:0 58:43 59:0 60:0 61:43 62:43 63:43 64:0 65:43 66:0 67:0 68:0 69:0 70:0 71:0 72:0 73:0 
1 0:2256 1:0 2:0 3:43 4:0 5:0 6:0 7:0 8:0 9:0 10:0 11:0 12:0 13:0 14:0 15:43 16:0 17:0 18:0 19:0 20:43 21:0 22:0 23:0 24:43 25:0 26:0 27:0 28:0 29:0 30:0 31:0 32:0 33:0 34:0 35:0 36:43 37:0 38:0 39:0 40:0 41:0 42:0 43:0 44:43 45:43 46:43 47:43 48:0 49:0 50:0 51:0 52:43 53:43 54:43 55:43 56:0 57:0 58:43 59:0 60:0 61:43 62:43 63:43 64:0 65:43 66:0 67:0 68:0 69:0 70:0 71:0 72:0 73:0 
1 0:2257 1:0 2:0 3:43 4:0 5:0 6:0 7:0 8:0 9:0 10:0 11:0 12:0 13:0 14:0 15:43 16:0 17:0 18:0 19:0 20:43 21:0 22:0 23:0 24:43 25:0 26:0 27:0 28:0 29:0 30:0 31:0 32:0 33:0 34:0 35:0 36:43 37:0 38:0 39:0 40:0 41:0 42:0 43:0 44:43 45:43 46:43 47:43 48:0 49:0 50:0 51:0 52:43 53:43 54:43 55:43 56:0 57:0 58:43 59:0 60:0 61:43 62:43 63:43 64:0 65:43 66:0 67:0 68:0 69:0 70:0 71:0 72:0 73:0 
1 0:2258 1:0 2:0 3:43 4:0 5:0 6:0 7:0 8:0 9:0 10:0 11:0 12:0 13:0 14:0 15:43 16:0 17:0 18:0 19:0 20:43 21:0 22:0 23:0 24:43 25:0 26:0 27:0 28:0 29:0 30:0 31:0 32:0 33:0 34:0 35:0 36:43 37:0 38:0 39:0 40:0 41:0 42:0 43:0 44:43 45:43 46:43 47:43 48:0 49:0 50:0 51:0 52:43 53:43 54:43 55:43 56:0 57:0 58:43 59:0 60:0 61:43 62:43 63:43 64:0 65:43 66:0 67:0 68:0 69:0 70:0 71:0 72:0 73:0 
1 0:2259 1:26 2:0 3:0 4:0 5:26 6:0 7:0 8:0 9:0 10:0 11:0 12:0 13:0 14:0 15:0 16:0 17:0 18:0 19:0 20:0 21:0 22:0 23:0 24:0 25:0 26:0 27:26 28:0 29:0 30:0 31:0 32:0 33:0 34:0 35:0 36:0 37:0 38:0 39:0 40:26 41:0 42:0 43:0 44:26 45:26 46:26 47:0 48:0 49:0 50:0 51:0 52:0 53:0 54:0 55:26 56:0 57:0 58:0 59:0 60:0 61:0 62:0 63:0 64:0 65:0 66:0 67:0 68:0 69:0 70:0 71:0 72:0 73:26 
1 0:2260 1:26 2:0 3:0 4:0 5:26 6:0 7:0 8:0 9:0 10:0 11:0 12:0 13:0 14:0 15:0 16:0 17:0 18:0 19:0 20:0 21:0 22:0 23:0 24:0 25:0 26:0 27:26 28:0 29:0 30:0 31:0 32:0 33:0 34:0 35:0 36:0 37:0 38:0 39:0 40:26 41:0 42:0 43:0 44:26 45:26 46:26 47:0 48:0 49:0 50:0 51:0 52:0 53:0 54:0 55:26 56:0 57:0 58:0 59:0 60:0 61:0 62:0 63:0 64:0 65:0 66:0 67:0 68:0 69:0 70:0 71:0 72:0 73:26 
1 0:2261 1:27 2:0 3:0 4:0 5:27 6:0 7:0 8:0 9:0 10:0 11:0 12:0 13:0 14:0 15:0 16:0 17:0 18:0 19:0 20:0 21:0 22:0 23:0 24:0 25:0 26:0 27:27 28:0 29:0 30:0 31:0 32:0 33:0 34:0 35:0 36:0 37:0 38:0 39:0 40:27 41:0 42:0 43:0 44:27 45:27 46:27 47:0 48:0 49:0 50:0 51:0 52:0 53:0 54:0 55:27 56:0 57:0 58:0 59:0 60:0 61:0 62:0 63:0 64:0 65:0 66:0 67:0 68:0 69:0 70:0 71:0 72:0 73:27 
1 0:2266 1:26 2:0 3:0 4:0 5:26 6:0 7:0 8:0 9:0 10:0 11:0 12:0 13:0 14:0 15:0 16:0 17:0 18:0 19:0 20:0 21:0 22:0 23:0 24:0 25:0 26:0 27:26 28:0 29:0 30:0 31:0 32:0 33:0 34:0 35:0 36:0 37:0 38:0 39:0 40:26 41:0 42:0 43:0 44:26 45:26 46:26 47:0 48:0 49:0 50:0 51:0 52:0 53:0 54:0 55:26 56:0 57:0 58:0 59:0 60:0 61:0 62:0 63:0 64:0 65:0 66:0 67:0 68:0 69:0 70:0 71:0 72:0 73:26 
1 0:2268 1:26 2:0 3:0 4:0 5:26 6:0 7:0 8:0 9:0 10:0 11:0 12:0 13:0 14:0 15:0 16:0 17:0 18:0 19:0 20:0 21:0 22:0 23:0 24:0 25:0 26:0 27:26 28:0 29:0 30:0 31:0 32:0 33:0 34:0 35:0 36:0 37:0 38:0 39:0 40:26 41:0 42:0 43:0 44:26 45:26 46:26 47:0 48:0 49:0 50:0 51:0 52:0 53:0 54:0 55:26 56:0 57:0 58:0 59:0 60:0 61:0 62:0 63:0 64:0 65:0 66:0 67:0 68:0 69:0 70:0 71:0 72:0 73:26 
1 0:2270 1:27 2:0 3:0 4:0 5:27 6:0 7:0 8:0 9:0 10:0 11:0 12:0 13:0 14:0 15:0 16:0 17:0 18:0 19:0 20:0 21:0 22:0 23:0 24:0 25:0 26:0 27:27 28:0 29:0 30:0 31:0 32:0 33:0 34:0 35:0 36:0 37:0 38:0 39:0 40:27 41:0 42:0 43:0 44:27 45:27 46:27 47:0 48:0 49:0 50:0 51:0 52:0 53:0 54:0 55:27 56:0 57:0 58:0 59:0 60:0 61:0 62:0 63:0 64:0 65:0 66:0 67:0 68:0 69:0 70:0 71:0 72:0 73:27 
1 0:2273 1:27 2:0 3:0 4:0 5:27 6:0 7:0 8:0 9:0 10:0 11:0 12:0 13:0 14:0 15:0 16:0 17:0 18:0 19:0 20:0 21:0 22:0 23:0 24:0 25:0 26:0 27:27 28:0 29:0 30:0 31:0 32:0 33:0 34:0 35:0 36:0 37:0 38:0 39:0 40:27 41:0 42:0 43:0 44:27 45:27 46:27 47:0 48:0 49:0 50:0 51:0 52:0 53:0 54:0 55:27 56:0 57:0 58:0 59:0 60:0 61:0 62:0 63:0 64:0 65:0 66:0 67:0 68:0 69:0 70:0 71:0 72:0 73:27 
1 0:2277 1:26 2:0 3:0 4:0 5:26 6:0 7:0 8:0 9:0 10:0 11:0 12:0 13:0 14:0 15:0 16:0 17:0 18:0 19:0 20:0 21:0 22:0 23:0 24:0 25:0 26:0 27:26 28:0 29:0 30:0 31:0 32:0 33:0 34:0 35:0 36:0 37:0 38:0 39:0 40:26 41:0 42:0 43:0 44:26 45:26 46:26 47:0 48:0 49:0 50:0 51:0 52:0 53:0 54:0 55:26 56:0 57:0 58:0 59:0 60:0 61:0 62:0 63:0 64:0 65:0 66:0 67:0 68:0 69:0 70:0 71:0 72:0 73:26 
0.6352673935292128 0:2281 1:26 2:0 3:0 4:0 5:26 6:0 7:0 8:0 9:0 10:0 11:0 12:0 13:0 14:0 15:0 16:0 17:0 18:0 19:0 20:0 21:0 22:0 23:0 24:0 25:0 26:0 27:26 28:0 29:0 30:0 31:0 32:0 33:0 34:0 35:0 36:0 37:0 38:0 39:0 40:26 41:0 42:0 43:0 44:26 45:26 46:26 47:0 48:0 49:0 50:0 51:0 52:0 53:0 54:0 55:26 56:0 57:0 58:0 59:0 60:0 61:0 62:0 63:0 64:0 65:0 66:0 67:0 68:0 69:0 70:0 71:0 72:0 73:26 
1 0:2304 1:19 2:0 3:0 4:0 5:19 6:0 7:0 8:0 9:0 10:0 11:0 12:0 13:0 14:0 15:0 16:0 17:0 18:0 19:0 20:0 21:0 22:0 23:0 24:0 25:0 26:0 27:19 28:0 29:0 30:0 31:0 32:0 33:0 34:0 35:0 36:0 37:0 38:0 39:0 40:19 41:0 42:0 43:0 44:19 45:19 46:19 47:0 48:0 49:0 50:0 51:0 52:0 53:0 54:0 55:19 56:0 57:0 58:0 59:0 60:0 61:0 62:0 63:0 64:0 65:0 66:0 67:0 68:0 69:0 70:0 71:0 72:0 73:19 
0.65159372877811861 0:2310 1:19 2:0 3:0 4:0 5:19 6:0 7:0 8:0 9:0 10:0 11:0 12:0 13:0 14:0 15:0 16:0 17:0 18:0 19:0 20:0 21:0 22:0 23:0 24:0 25:0 26:0 27:19 28:0 29:0 30:0 31:0 32:0 33:0 34:0 35:0 36:0 37:0 38:0 39:0 40:19 41:0 42:0 43:0 44:19 45:19 46:19 47:0 48:0 49:0 50:0 51:0 52:0 53:0 54:0 55:19 56:0 57:0 58:0 59:0 60:0 61:0 62:0 63:0 64:0 65:0 66:0 67:0 68:0 69:0 70:0 71:0 72:0 73:19 
1 0:2401 1:27 2:0 3:0 4:0 5:27 6:0 7:0 8:0 9:0 10:0 11:0 12:0 13:0 14:0 15:0 16:0 17:0 18:0 19:0 20:0 21:0 22:0 23:0 24:0 25:0 26:0 27:27 28:0 29:0 30:0 31:0 32:0 33:0 34:0 35:0 36:0 37:0 38:0 39:0 40:27 41:0 42:0 43:0 44:27 45:27 46:27 47:0 48:0 49:0 50:0 51:0 52:0 53:0 54:0 55:27 56:0 57:0 58:0 59:0 60:0 61:0 62:0 63:0 64:0 65:0 66:0 67:0 68:0 69:0 70:0 71:0 72:0 73:27 
0.38692680083245001 0:2405 1:26 2:0 3:0 4:0 5:26 6:0 7:0 8:0 9:0 10:0 11:0 12:0 13:0 14:0 15:0 16:0 17:0 18:0 19:0 20:0 21:0 22:0 23:0 24:0 25:0 26:0 27:26 28:0 29:0 30:0 31:0 32:0 33:0 34:0 35:0 36:0 37:0 38:0 39:0 40:26 41:0 42:0 43:0 44:26 45:26 46:26 47:0 48:0 49:0 50:0 51:0 52:0 53:0 54:0 55:26 56:0 57:0 58:0 59:0 60:0 61:0 62:0 63:0 64:0 65:0 66:0 67:0 68:0 69:0 70:0 71:0 72:0 73:26 
1 0:2414 1:26 2:0 3:0 4:0 5:26 6:0 7:0 8:0 9:0 10:0 11:0 12:0 13:0 14:0 15:0 16:0 17:0 18:0 19:0 20:0 21:0 22:0 23:0 24:0 25:0 26:0 27:26 28:0 29:0 30:0 31:0 32:0 33:0 34:0 35:0 36:0 37:0 38:0 39:0 40:26 41:0 42:0 43:0 44:26 45:26 46:26 47:0 48:0 49:0 50:0 51:0 52:0 53:0 54:0 55:26 56:0 57:0 58:0 59:0 60:0 61:0 62:0 63:0 64:0 65:0 66:0 67:0 68:0 69:0 70:0 71:0 72:0 73:26 
1 0:2415 1:26 2:0 3:0 4:0 5:26 6:0 7:0 8:0 9:0 10:0 11:0 12:0 13:0 14:0 15:0 16:0 17:0 18:0 19:0 20:0 21:0 22:0 23:0 24:0 25:0 26:0 27:26 28:0 29:0 30:0 31:0 32:0 33:0 34:0 35:0 36:0 37:0 38:0 39:0 40:26 41:0 42:0 43:0 44:26 45:26 46:26 47:0 48:0 49:0 50:0 51:0 52:0 53:0 54:0 55:26 56:0 57:0 58:0 59:0 60:0 61:0 62:0 63:0 64:0 65:0 66:0 67:0 68:0 69:0 70:0 71:0 72:0 73:26 
1 0:2416 1:27 2:0 3:0 4:0 5:27 6:0 7:0 8:0 9:0 10:0 11:0 12:0 13:0 14:0 15:0 16:0 17:0 18:0 19:0 20:0 21:0 22:0 23:0 24:0 25:0 26:0 27:27 28:0 29:0 30:0 31:0 32:0 33:0 34:0 35:0 36:0 37:0 38:0 39:0 40:27 41:0 42:0 43:0 44:27 45:27 46:27 47:0 48:0 49:0 50:0 51:0 52:0 53:0 54:0 55:27 56:0 57:0 58:0 59:0 60:0 61:0 62:0 63:0 64:0 65:0 66:0 67:0 68:0 69:0 70:0 71:0 72:0 73:27 
1 0:2419 1:26 2:0 3:0 4:0 5:26 6:0 7:0 8:0 9:0 10:0 11:0 12:0 13:0 14:0 15:0 16:0 17:0 18:0 19:0 20:0 21:0 22:0 23:0 24:0 25:0 26:0 27:26 28:0 29:0 30:0 31:0 32:0 33:0 34:0 35:0 36:0 37:0 38:0 39:0 40:26 41:0 42:0 43:0 44:26 45:26 46:26 47:0 48:0 49:0 50:0 51:0 52:0 53:0 54:0 55:26 56:0 57:0 58:0 59:0 60:0 61:0 62:0 63:0 64:0 65:0 66:0 67:0 68:0 69:0 70:0 71:0 72:0 73:26 
1 0:2420 1:25 2:0 3:0 4:0 5:25 6:0 7:0 8:0 9:0 10:0 11:0 12:0 13:0 14:0 15:0 16:0 17:0 18:0 19:0 20:0 21:0 22:0 23:0 24:0 25:0 26:0 27:25 28:0 29:0 30:0 31:0 32:0 33:0 34:0 35:0 36:0 37:0 38:0 39:0 40:25 41:0 42:0 43:0 44:25 45:25 46:25 47:0 48:0 49:0 50:0 51:0 52:0 53:0 54:0 55:25 56:0 57:0 58:0 59:0 60:0 61:0 62:0 63:0 64:0 65:0 66:0 67:0 68:0 69:0 70:0 71:0 72:0 73:25 
1 0:2421 1:25 2:0 3:0 4:0 5:25 6:0 7:0 8:0 9:0 10:0 11:0 12:0 13:0 14:0 15:0 16:0 17:0 18:0 19:0 20:0 21:0 22:0 23:0 24:0 25:0 26:0 27:25 28:0 29:0 30:0 31:0 32:0 33:0 34:0 35:0 36:0 37:0 38:0 39:0 40:25 41:0 42:0 43:0 44:25 45:25 46:25 47:0 48:0 49:0 50:0 51:0 52:0 53:0 54:0 55:25 56:0 57:0 58:0 59:0 60:0 61:0 62:0 63:0 64:0 65:0 66:0 67:0 68:0 69:0 70:0 71:0 72:0 73:25 
1 0:2422 1:0 2:0 3:33 4:0 5:0 6:0 7:0 8:0 9:0 10:0 11:0 12:0 13:0 14:9 15:15 16:9 17:0 18:0 19:0 20:0 21:0 22:0 23:0 24:0 25:0 26:0 27:0 28:0 29:0 30:0 31:0 32:33 33:33 34:33 35:0 36:0 37:0 38:30 39:30 40:30 41:30 42:0 43:0 44:30 45:30 46:30 47:30 48:0 49:0 50:0 51:0 52:0 53:0 54:0 55:0 56:0 57:0 58:0 59:0 60:30 61:0 62:0 63:0 64:0 65:0 66:0 67:0 68:0 69:0 70:0 71:0 72:0 73:0 
